{"learner":{"attributes":{"best_iteration":"503","best_score":"0.30765112780672904","scikit_learn":"{\"_estimator_type\": \"regressor\"}"},"feature_names":[],"feature_types":[],"gradient_booster":{"model":{"gbtree_model_param":{"num_parallel_tree":"1","num_trees":"554"},"iteration_indptr":[0,1,2,3,4,5,6,7,8,9,10,11,12,13,14,15,16,17,18,19,20,21,22,23,24,25,26,27,28,29,30,31,32,33,34,35,36,37,38,39,40,41,42,43,44,45,46,47,48,49,50,51,52,53,54,55,56,57,58,59,60,61,62,63,64,65,66,67,68,69,70,71,72,73,74,75,76,77,78,79,80,81,82,83,84,85,86,87,88,89,90,91,92,93,94,95,96,97,98,99,100,101,102,103,104,105,106,107,108,109,110,111,112,113,114,115,116,117,118,119,120,121,122,123,124,125,126,127,128,129,130,131,132,133,134,135,136,137,138,139,140,141,142,143,144,145,146,147,148,149,150,151,152,153,154,155,156,157,158,159,160,161,162,163,164,165,166,167,168,169,170,171,172,173,174,175,176,177,178,179,180,181,182,183,184,185,186,187,188,189,190,191,192,193,194,195,196,197,198,199,200,201,202,203,204,205,206,207,208,209,210,211,212,213,214,215,216,217,218,219,220,221,222,223,224,225,226,227,228,229,230,231,232,233,234,235,236,237,238,239,240,241,242,243,244,245,246,247,248,249,250,251,252,253,254,255,256,257,258,259,260,261,262,263,264,265,266,267,268,269,270,271,272,273,274,275,276,277,278,279,280,281,282,283,284,285,286,287,288,289,290,291,292,293,294,295,296,297,298,299,300,301,302,303,304,305,306,307,308,309,310,311,312,313,314,315,316,317,318,319,320,321,322,323,324,325,326,327,328,329,330,331,332,333,334,335,336,337,338,339,340,341,342,343,344,345,346,347,348,349,350,351,352,353,354,355,356,357,358,359,360,361,362,363,364,365,366,367,368,369,370,371,372,373,374,375,376,377,378,379,380,381,382,383,384,385,386,387,388,389,390,391,392,393,394,395,396,397,398,399,400,401,402,403,404,405,406,407,408,409,410,411,412,413,414,415,416,417,418,419,420,421,422,423,424,425,426,427,428,429,430,431,432,433,434,435,436,437,438,439,440,441,442,443,444,445,446,447,448,449,450,451,452,453,454,455,456,457,458,459,460,461,462,463,464,465,466,467,468,469,470,471,472,473,474,475,476,477,478,479,480,481,482,483,484,485,486,487,488,489,490,491,492,493,494,495,496,497,498,499,500,501,502,503,504,505,506,507,508,509,510,511,512,513,514,515,516,517,518,519,520,521,522,523,524,525,526,527,528,529,530,531,532,533,534,535,536,537,538,539,540,541,542,543,544,545,546,547,548,549,550,551,552,553,554],"tree_info":[0,0,0,0,0,0,0,0,0,0,0,0,0,0,0,0,0,0,0,0,0,0,0,0,0,0,0,0,0,0,0,0,0,0,0,0,0,0,0,0,0,0,0,0,0,0,0,0,0,0,0,0,0,0,0,0,0,0,0,0,0,0,0,0,0,0,0,0,0,0,0,0,0,0,0,0,0,0,0,0,0,0,0,0,0,0,0,0,0,0,0,0,0,0,0,0,0,0,0,0,0,0,0,0,0,0,0,0,0,0,0,0,0,0,0,0,0,0,0,0,0,0,0,0,0,0,0,0,0,0,0,0,0,0,0,0,0,0,0,0,0,0,0,0,0,0,0,0,0,0,0,0,0,0,0,0,0,0,0,0,0,0,0,0,0,0,0,0,0,0,0,0,0,0,0,0,0,0,0,0,0,0,0,0,0,0,0,0,0,0,0,0,0,0,0,0,0,0,0,0,0,0,0,0,0,0,0,0,0,0,0,0,0,0,0,0,0,0,0,0,0,0,0,0,0,0,0,0,0,0,0,0,0,0,0,0,0,0,0,0,0,0,0,0,0,0,0,0,0,0,0,0,0,0,0,0,0,0,0,0,0,0,0,0,0,0,0,0,0,0,0,0,0,0,0,0,0,0,0,0,0,0,0,0,0,0,0,0,0,0,0,0,0,0,0,0,0,0,0,0,0,0,0,0,0,0,0,0,0,0,0,0,0,0,0,0,0,0,0,0,0,0,0,0,0,0,0,0,0,0,0,0,0,0,0,0,0,0,0,0,0,0,0,0,0,0,0,0,0,0,0,0,0,0,0,0,0,0,0,0,0,0,0,0,0,0,0,0,0,0,0,0,0,0,0,0,0,0,0,0,0,0,0,0,0,0,0,0,0,0,0,0,0,0,0,0,0,0,0,0,0,0,0,0,0,0,0,0,0,0,0,0,0,0,0,0,0,0,0,0,0,0,0,0,0,0,0,0,0,0,0,0,0,0,0,0,0,0,0,0,0,0,0,0,0,0,0,0,0,0,0,0,0,0,0,0,0,0,0,0,0,0,0,0,0,0,0,0,0,0,0,0,0,0,0,0,0,0,0,0,0,0,0,0,0,0,0,0,0,0,0,0,0,0,0,0,0,0,0,0,0,0,0,0,0,0,0,0,0,0,0,0,0,0,0,0,0,0,0,0,0,0,0,0,0,0,0,0,0,0,0,0,0,0,0,0,0,0,0,0,0,0,0,0,0,0,0,0,0,0,0,0,0,0],"trees":[{"base_weights":[-2.6487154E-3,-3.3131927E-1,1.2752321E0,-7.1906507E-1,2.1993365E-2,8.6964476E-1,2.1349652E0,-4.576454E-1,-9.058266E-1,7.991444E-1,-1.658914E-1,1.5303817E0,5.7256263E-1,1.668825E0,2.4806726E0,-7.030808E-1,-1.6154332E-1,-1.1038567E0,-7.1592396E-1,2.041211E-1,1.0982157E0,-3.4010234E-1,8.975324E-2,9.9065137E-1,1.745905E0,2.492876E-1,8.712045E-1,1.325781E0,2.191801E0,2.2344198E0,2.7724264E0,-3.3948743E-1,-9.198279E-1,4.9331844E-1,-3.097943E-1,-5.020395E-1,-1.1397523E0,-1.8683013E-1,-7.837932E-1,-2.361583E-1,3.5866022E-1,1.257577E0,-3.2302207E-1,-4.043382E-1,9.113383E-2,3.3360174E-1,-1.3542464E-1,5.8457416E-1,1.3627744E0,2.4545603E0,1.5287595E0,4.9286187E-1,6.0046285E-2,7.067014E-1,1.2706616E0,1.0897944E0,1.4952289E0,2.3826542E0,1.5336324E0,1.8602089E0,2.5497952E0,2.8103918E-1,4.1231462E-1,-8.089185E-2,-2.3229584E-2,-3.856683E-2,-9.852447E-2,2.103754E-3,7.1575634E-2,-1.3608587E-2,-5.5287864E-2,2.2793476E-2,-6.8727724E-2,-9.674897E-2,-1.22487105E-1,-1.1999566E-3,-6.0799427E-2,-8.1957825E-2,-1.7443523E-2,-7.997536E-3,-5.8144253E-2,9.881036E-3,5.9565008E-2,1.7066772E-1,9.905877E-2,5.1383576E-3,-5.5603057E-2,-2.3229228E-2,-5.447572E-2,-1.7310519E-2,3.8389757E-2,2.2043673E-2,9.450825E-2,-2.7216041E-2,-8.654481E-4,7.069216E-2,1.5945265E-2,-7.459586E-2,1.4068744E-1,2.5796697E-1,1.0874474E-1,1.1643777E-1,1.779659E-1,2.0139823E-2,6.590305E-2,-1.58848E-2,1.839411E-2,5.5652034E-2,9.0659186E-2,2.0174257E-2,1.3519125E-1,-2.2687858E-3,1.1347312E-1,1.0469544E-1,1.609771E-1,5.890414E-2,2.3953505E-1,3.1956214E-2,1.6575804E-1,1.4060806E-1,1.9998892E-1,1.6850793E-1,2.6509807E-1,-3.6127813E-2,1.4165466E-1],"categories":[],"categories_nodes":[],"categories_segments":[],"categories_sizes":[],"default_left":[0,0,0,0,0,0,0,0,0,0,0,0,0,0,0,0,0,0,0,0,0,0,0,0,0,0,0,0,0,0,0,0,0,0,0,0,0,0,0,0,0,0,0,0,0,0,0,0,0,0,0,0,0,0,0,0,0,0,0,0,0,0,0,0,0,0,0,0,0,0,0,0,0,0,0,0,0,0,0,0,0,0,0,0,0,0,0,0,0,0,0,0,0,0,0,0,0,0,0,0,0,0,0,0,0,0,0,0,0,0,0,0,0,0,0,0,0,0,0,0,0,0,0,0,0],"id":0,"left_children":[1,3,5,7,9,11,13,15,17,19,21,23,25,27,29,31,33,35,37,39,41,43,45,47,49,51,53,55,57,59,61,63,65,67,69,71,73,75,77,79,81,83,85,87,89,91,93,95,97,99,101,103,105,107,109,111,113,115,117,119,121,-1,123,-1,-1,-1,-1,-1,-1,-1,-1,-1,-1,-1,-1,-1,-1,-1,-1,-1,-1,-1,-1,-1,-1,-1,-1,-1,-1,-1,-1,-1,-1,-1,-1,-1,-1,-1,-1,-1,-1,-1,-1,-1,-1,-1,-1,-1,-1,-1,-1,-1,-1,-1,-1,-1,-1,-1,-1,-1,-1,-1,-1,-1,-1],"loss_changes":[4.4242075E3,1.1479707E3,7.4928467E2,1.944978E2,6.4047095E2,2.866792E2,1.0663745E2,1.2094742E2,8.661304E1,1.5161865E2,1.5735706E2,5.0808105E1,9.746927E1,5.002539E1,2.1611572E1,7.135571E1,7.362699E1,2.3847412E1,4.256024E1,1.9624542E1,1.2914612E2,5.826758E1,7.869511E1,1.895523E1,4.5552917E1,2.2409142E1,3.346878E1,5.3897095E0,1.0525391E1,2.0661499E1,1.42890625E1,1.6917091E1,1.9400482E1,1.461871E1,2.5951405E1,9.1270275E0,1.4328857E1,1.0018337E1,2.2784729E1,3.9319205E0,1.2988619E1,5.9311096E1,5.138939E0,4.398172E1,2.1206703E1,4.728351E1,1.2883404E1,3.1814556E0,7.4392166E0,9.484924E0,2.0489197E1,1.0097267E1,7.5168123E0,1.0606567E1,1.2773178E1,4.1362686E0,3.3376465E0,2.9458618E-1,3.6365585E0,3.444397E0,5.2489624E0,0E0,3.7247598E0,0E0,0E0,0E0,0E0,0E0,0E0,0E0,0E0,0E0,0E0,0E0,0E0,0E0,0E0,0E0,0E0,0E0,0E0,0E0,0E0,0E0,0E0,0E0,0E0,0E0,0E0,0E0,0E0,0E0,0E0,0E0,0E0,0E0,0E0,0E0,0E0,0E0,0E0,0E0,0E0,0E0,0E0,0E0,0E0,0E0,0E0,0E0,0E0,0E0,0E0,0E0,0E0,0E0,0E0,0E0,0E0,0E0,0E0,0E0,0E0,0E0,0E0],"parents":[2147483647,0,0,1,1,2,2,3,3,4,4,5,5,6,6,7,7,8,8,9,9,10,10,11,11,12,12,13,13,14,14,15,15,16,16,17,17,18,18,19,19,20,20,21,21,22,22,23,23,24,24,25,25,26,26,27,27,28,28,29,29,30,30,31,31,32,32,33,33,34,34,35,35,36,36,37,37,38,38,39,39,40,40,41,41,42,42,43,43,44,44,45,45,46,46,47,47,48,48,49,49,50,50,51,51,52,52,53,53,54,54,55,55,56,56,57,57,58,58,59,59,60,60,62,62],"right_children":[2,4,6,8,10,12,14,16,18,20,22,24,26,28,30,32,34,36,38,40,42,44,46,48,50,52,54,56,58,60,62,64,66,68,70,72,74,76,78,80,82,84,86,88,90,92,94,96,98,100,102,104,106,108,110,112,114,116,118,120,122,-1,124,-1,-1,-1,-1,-1,-1,-1,-1,-1,-1,-1,-1,-1,-1,-1,-1,-1,-1,-1,-1,-1,-1,-1,-1,-1,-1,-1,-1,-1,-1,-1,-1,-1,-1,-1,-1,-1,-1,-1,-1,-1,-1,-1,-1,-1,-1,-1,-1,-1,-1,-1,-1,-1,-1,-1,-1,-1,-1,-1,-1,-1,-1],"split_conditions":[6.330862E-1,-4.2607856E-1,1.5406417E0,-4.688125E-1,-6.8753004E-2,-4.0042505E-2,2.052343E0,-8.7691545E-1,-7.907392E-1,-5.243789E-1,1.2826441E-1,-5.243789E-1,9.6208954E-1,-1.276202E-1,1.1043502E-1,-8.0217165E-1,-9.186316E-2,-1.00911215E-1,-7.938782E-2,-2.6559427E-1,1.0937238E0,1.2213594E0,-1.6305069E-2,-6.835522E-2,-8.021102E-2,-5.065212E-3,-1.276202E-1,-2.0021749E-1,9.0183014E-1,2.539835E0,6.2336132E-2,-2.5142384E-1,-8.5807495E-2,-8.018107E-1,2.690588E-2,-1.003065E0,-1.4656423E-1,1.0796827E0,1.6974698E0,7.7546114E-1,-1.0004894E0,-9.8233E-2,1.3277403E0,-1.3273042E-1,-1.3430806E-1,1.0626559E0,3.4268108E-1,9.4863343E-1,-2.032062E0,1.0469204E0,8.962889E-1,-5.243789E-1,-9.2113763E-1,1.2648356E0,2.5718557E-2,-8.7391645E-2,-1.397248E0,-1.3540899E0,9.9075645E-1,-1.1591928E0,6.137842E-1,2.8103918E-1,8.731599E-3,-8.089185E-2,-2.3229584E-2,-3.856683E-2,-9.852447E-2,2.103754E-3,7.1575634E-2,-1.3608587E-2,-5.5287864E-2,2.2793476E-2,-6.8727724E-2,-9.674897E-2,-1.22487105E-1,-1.1999566E-3,-6.0799427E-2,-8.1957825E-2,-1.7443523E-2,-7.997536E-3,-5.8144253E-2,9.881036E-3,5.9565008E-2,1.7066772E-1,9.905877E-2,5.1383576E-3,-5.5603057E-2,-2.3229228E-2,-5.447572E-2,-1.7310519E-2,3.8389757E-2,2.2043673E-2,9.450825E-2,-2.7216041E-2,-8.654481E-4,7.069216E-2,1.5945265E-2,-7.459586E-2,1.4068744E-1,2.5796697E-1,1.0874474E-1,1.1643777E-1,1.779659E-1,2.0139823E-2,6.590305E-2,-1.58848E-2,1.839411E-2,5.5652034E-2,9.0659186E-2,2.0174257E-2,1.3519125E-1,-2.2687858E-3,1.1347312E-1,1.0469544E-1,1.609771E-1,5.890414E-2,2.3953505E-1,3.1956214E-2,1.6575804E-1,1.4060806E-1,1.9998892E-1,1.6850793E-1,2.6509807E-1,-3.6127813E-2,1.4165466E-1],"split_indices":[0,0,0,2,5,5,0,0,0,1,0,1,0,1,1,2,5,5,5,0,6,1,5,3,5,5,1,3,6,0,5,3,5,6,5,6,6,6,1,6,1,5,6,2,0,1,0,6,1,6,0,1,1,0,2,5,1,6,6,1,2,0,3,0,0,0,0,0,0,0,0,0,0,0,0,0,0,0,0,0,0,0,0,0,0,0,0,0,0,0,0,0,0,0,0,0,0,0,0,0,0,0,0,0,0,0,0,0,0,0,0,0,0,0,0,0,0,0,0,0,0,0,0,0,0],"split_type":[0,0,0,0,0,0,0,0,0,0,0,0,0,0,0,0,0,0,0,0,0,0,0,0,0,0,0,0,0,0,0,0,0,0,0,0,0,0,0,0,0,0,0,0,0,0,0,0,0,0,0,0,0,0,0,0,0,0,0,0,0,0,0,0,0,0,0,0,0,0,0,0,0,0,0,0,0,0,0,0,0,0,0,0,0,0,0,0,0,0,0,0,0,0,0,0,0,0,0,0,0,0,0,0,0,0,0,0,0,0,0,0,0,0,0,0,0,0,0,0,0,0,0,0,0],"sum_hessian":[1.0532E4,8.378E3,2.154E3,3.994E3,4.384E3,1.465E3,6.89E2,1.666E3,2.328E3,8.53E2,3.531E3,4.53E2,1.012E3,2.96E2,3.93E2,9.1E2,7.56E2,1.137E3,1.191E3,2.86E2,5.67E2,2.1E3,1.431E3,1.31E2,3.22E2,4.87E2,5.25E2,1.81E2,1.15E2,2.18E2,1.75E2,3.41E2,5.69E2,1.39E2,6.17E2,6.5E1,1.072E3,1.36E2,1.055E3,7.4E1,2.12E2,5.1E2,5.7E1,1.828E3,2.72E2,6.87E2,7.44E2,6.4E1,6.7E1,7.3E1,2.49E2,2.12E2,2.75E2,3.74E2,1.51E2,7.9E1,1.02E2,8.7E1,2.8E1,1.03E2,1.15E2,1.72E2,3E0,6.2E1,2.79E2,6.3E1,5.06E2,4.5E1,9.4E1,3.61E2,2.56E2,1.3E1,5.2E1,3.59E2,7.13E2,9.7E1,3.9E1,9.96E2,5.9E1,5.2E1,2.2E1,1.02E2,1.1E2,1.88E2,3.22E2,2.2E1,3.5E1,8.23E2,1.005E3,1.43E2,1.29E2,5.81E2,1.06E2,3.57E2,3.87E2,4.9E1,1.5E1,1E0,6.6E1,6.6E1,7E0,1.04E2,1.45E2,7.8E1,1.34E2,9.9E1,1.76E2,2.16E2,1.58E2,1.1E1,1.4E2,3E0,7.6E1,2.3E1,7.9E1,1E0,8.6E1,3E0,2.5E1,2.7E1,7.6E1,1.4E1,1.01E2,2E0,1E0],"tree_param":{"num_deleted":"0","num_feature":"8","num_nodes":"125","size_leaf_vector":"1"}},{"base_weights":[-3.339326E-4,-1.8007608E-1,6.897123E-1,2.8523046E-1,-3.7168244E-1,9.256003E-1,-3.09856E-1,5.099462E-1,-6.32626E-1,-3.17978E-1,-9.546448E-1,1.1558378E0,1.05922885E-1,-2.3156716E-2,-7.9241216E-1,7.270296E-1,-2.0496058E-1,-3.352105E-1,-8.342226E-1,-1.0425432E-1,-5.333564E-1,-8.4919435E-1,-1.1286939E0,8.3620363E-1,1.6039208E0,5.552668E-1,-3.893536E-1,4.2899215E-1,-2.7628016E-1,-1.0352273E0,-5.2188003E-1,1.5958618E0,6.1797255E-1,3.9991446E-2,-7.1212804E-1,2.1801993E-1,-6.2930113E-1,-6.75461E-1,-1.0122213E0,2.514533E-3,-5.973952E-1,-1.10807195E-1,-6.0490274E-1,-1.018628E0,-6.9799E-1,-2.6215028E-3,-1.1339711E0,1.1621244E0,3.3577555E-1,1.6707406E0,-4.3410808E-1,1.1276357E0,2.2942922E-1,1.9782428E-1,-4.8663142E-1,6.200282E-1,4.8256878E-2,-1.20724976E-1,-5.7285696E-1,-7.234155E-1,-1.0936177E-1,1.8723417E-2,-6.4586663E-1,7.1363956E-2,1.7444067E-1,1.0295582E-1,2.2151766E-2,4.5649182E-2,-4.77955E-2,-1.8579606E-2,-9.495243E-2,9.345085E-2,3.3218858E-3,-6.686493E-2,-8.419257E-3,-7.44667E-2,-3.456464E-2,-1.0298411E-1,-5.3365923E-2,2.9072756E-2,-2.4809739E-2,-3.755537E-2,-8.8637404E-2,5.4774196E-3,-6.35325E-2,-4.7128998E-2,-1.14216626E-1,-1.0357356E-1,-1.23096835E-2,-3.896281E-2,-7.575173E-2,-2.063438E-2,-1.1373476E-1,1.4935048E-1,8.700452E-2,4.8259802E-2,-3.6584135E-2,1.8797301E-1,1.1954131E-1,9.2179194E-2,-7.522013E-2,4.250076E-2,1.3441053E-1,3.4981474E-2,-8.917778E-2,-7.873724E-3,7.7080704E-2,-2.7456308E-2,-7.82993E-2,9.13748E-2,3.0380756E-2,3.1538736E-2,-4.3717038E-2,-2.014109E-2,4.5708332E-2,-3.992924E-2,-7.409871E-2,-7.734053E-2,-0E0,7.336568E-2,-1.4000917E-2,-7.8895055E-2,-1.3827373E-2],"categories":[],"categories_nodes":[],"categories_segments":[],"categories_sizes":[],"default_left":[0,0,0,0,0,0,0,0,0,0,0,0,0,0,0,0,0,0,0,0,0,0,0,0,0,0,0,0,0,0,0,0,0,0,0,0,0,0,0,0,0,0,0,0,0,0,0,0,0,0,0,0,0,0,0,0,0,0,0,0,0,0,0,0,0,0,0,0,0,0,0,0,0,0,0,0,0,0,0,0,0,0,0,0,0,0,0,0,0,0,0,0,0,0,0,0,0,0,0,0,0,0,0,0,0,0,0,0,0,0,0,0,0,0,0,0,0,0,0,0,0,0,0],"id":1,"left_children":[1,3,5,7,9,11,13,15,17,19,21,23,25,27,29,31,33,35,37,39,41,43,45,47,49,51,53,55,57,59,61,63,65,67,69,71,73,75,77,79,81,83,85,87,89,-1,91,93,95,97,99,101,103,105,107,109,111,113,115,117,-1,119,121,-1,-1,-1,-1,-1,-1,-1,-1,-1,-1,-1,-1,-1,-1,-1,-1,-1,-1,-1,-1,-1,-1,-1,-1,-1,-1,-1,-1,-1,-1,-1,-1,-1,-1,-1,-1,-1,-1,-1,-1,-1,-1,-1,-1,-1,-1,-1,-1,-1,-1,-1,-1,-1,-1,-1,-1,-1,-1,-1,-1],"loss_changes":[1.3150435E3,7.500924E2,5.1695593E2,5.0646448E2,1.8613141E2,3.3435266E2,5.786812E1,3.0624457E2,2.856311E1,2.5112042E2,8.057251E0,1.9663489E2,8.7027084E1,3.0317915E1,9.551552E0,1.4215265E2,5.7242287E1,3.2230206E1,7.25795E0,1.4438036E2,8.2031555E1,7.2386017E0,9.363556E-1,1.3157098E2,7.915283E1,3.7837944E1,1.0749353E1,6.812994E0,7.7042723E0,5.0190735E-1,5.1689053E0,2.0525635E1,2.1928058E2,6.730648E1,1.845243E1,9.008327E0,2.6353493E0,3.1714706E0,4.155426E-1,1.6288196E2,3.0825378E1,3.4398758E1,1.6612933E2,2.008728E0,2.7289963E0,0E0,2.104187E-1,4.589099E1,3.325543E1,5.2776978E1,8.871164E0,1.0507057E1,1.8074738E1,4.408453E0,9.735088E0,5.452097E0,4.404889E0,5.3346667E0,1.2826252E0,5.990553E-1,0E0,1.8643316E0,4.3011436E0,0E0,0E0,0E0,0E0,0E0,0E0,0E0,0E0,0E0,0E0,0E0,0E0,0E0,0E0,0E0,0E0,0E0,0E0,0E0,0E0,0E0,0E0,0E0,0E0,0E0,0E0,0E0,0E0,0E0,0E0,0E0,0E0,0E0,0E0,0E0,0E0,0E0,0E0,0E0,0E0,0E0,0E0,0E0,0E0,0E0,0E0,0E0,0E0,0E0,0E0,0E0,0E0,0E0,0E0,0E0,0E0,0E0,0E0,0E0,0E0],"parents":[2147483647,0,0,1,1,2,2,3,3,4,4,5,5,6,6,7,7,8,8,9,9,10,10,11,11,12,12,13,13,14,14,15,15,16,16,17,17,18,18,19,19,20,20,21,21,22,22,23,23,24,24,25,25,26,26,27,27,28,28,29,29,30,30,31,31,32,32,33,33,34,34,35,35,36,36,37,37,38,38,39,39,40,40,41,41,42,42,43,43,44,44,46,46,47,47,48,48,49,49,50,50,51,51,52,52,53,53,54,54,55,55,56,56,57,57,58,58,59,59,61,61,62,62],"right_children":[2,4,6,8,10,12,14,16,18,20,22,24,26,28,30,32,34,36,38,40,42,44,46,48,50,52,54,56,58,60,62,64,66,68,70,72,74,76,78,80,82,84,86,88,90,-1,92,94,96,98,100,102,104,106,108,110,112,114,116,118,-1,120,122,-1,-1,-1,-1,-1,-1,-1,-1,-1,-1,-1,-1,-1,-1,-1,-1,-1,-1,-1,-1,-1,-1,-1,-1,-1,-1,-1,-1,-1,-1,-1,-1,-1,-1,-1,-1,-1,-1,-1,-1,-1,-1,-1,-1,-1,-1,-1,-1,-1,-1,-1,-1,-1,-1,-1,-1,-1,-1,-1,-1],"split_conditions":[3.3140397E-1,-5.6152236E-2,1.098404E0,1.0796827E0,1.3277403E0,9.833953E-1,1.505593E0,8.4378564E-1,1.3558223E0,1.3384811E-3,1.7536505E0,6.809025E-1,-9.281797E-1,-1.2603304E0,-8.2155734E-1,-1.39994E0,-9.141387E-1,-1.39994E0,1.5430356E0,9.086044E-1,-9.412227E-1,-4.1567843E-2,-1.1613258E0,-7.608311E-3,1.9142162E0,1.1977957E0,1.048214E0,1.309019E0,3.7135128E-2,-2.9416207E-2,1.6495062E-1,9.860761E-1,-6.848024E-1,1.2077678E0,9.335347E-1,1.1077647E0,2.0368876E-1,4.1423157E-2,-5.7375368E-2,-5.1631045E-1,-9.18819E-1,9.954368E-1,-4.367448E-1,3.0557087E-1,-1.4348423E0,-2.6215028E-3,-1.1676137E0,-5.584334E-1,2.2677965E-2,5.2438322E-3,-1.1107486E0,4.5638013E-1,1.5717499E0,9.4617033E-1,-7.316057E-1,-1.4099121E0,4.7368738E-1,8.787454E-1,-5.872127E-1,5.8068687E-1,-1.0936177E-1,-7.3741144E-1,5.5955567E0,7.1363956E-2,1.7444067E-1,1.0295582E-1,2.2151766E-2,4.5649182E-2,-4.77955E-2,-1.8579606E-2,-9.495243E-2,9.345085E-2,3.3218858E-3,-6.686493E-2,-8.419257E-3,-7.44667E-2,-3.456464E-2,-1.0298411E-1,-5.3365923E-2,2.9072756E-2,-2.4809739E-2,-3.755537E-2,-8.8637404E-2,5.4774196E-3,-6.35325E-2,-4.7128998E-2,-1.14216626E-1,-1.0357356E-1,-1.23096835E-2,-3.896281E-2,-7.575173E-2,-2.063438E-2,-1.1373476E-1,1.4935048E-1,8.700452E-2,4.8259802E-2,-3.6584135E-2,1.8797301E-1,1.1954131E-1,9.2179194E-2,-7.522013E-2,4.250076E-2,1.3441053E-1,3.4981474E-2,-8.917778E-2,-7.873724E-3,7.7080704E-2,-2.7456308E-2,-7.82993E-2,9.13748E-2,3.0380756E-2,3.1538736E-2,-4.3717038E-2,-2.014109E-2,4.5708332E-2,-3.992924E-2,-7.409871E-2,-7.734053E-2,-0E0,7.336568E-2,-1.4000917E-2,-7.8895055E-2,-1.3827373E-2],"split_indices":[2,5,6,6,6,7,6,7,6,5,6,2,6,7,7,7,6,7,6,7,7,2,4,5,3,7,7,6,3,3,3,6,6,7,7,6,2,2,5,6,6,6,6,5,7,0,2,6,3,5,7,2,7,2,6,7,3,2,7,2,0,4,2,0,0,0,0,0,0,0,0,0,0,0,0,0,0,0,0,0,0,0,0,0,0,0,0,0,0,0,0,0,0,0,0,0,0,0,0,0,0,0,0,0,0,0,0,0,0,0,0,0,0,0,0,0,0,0,0,0,0,0,0],"split_type":[0,0,0,0,0,0,0,0,0,0,0,0,0,0,0,0,0,0,0,0,0,0,0,0,0,0,0,0,0,0,0,0,0,0,0,0,0,0,0,0,0,0,0,0,0,0,0,0,0,0,0,0,0,0,0,0,0,0,0,0,0,0,0,0,0,0,0,0,0,0,0,0,0,0,0,0,0,0,0,0,0,0,0,0,0,0,0,0,0,0,0,0,0,0,0,0,0,0,0,0,0,0,0,0,0,0,0,0,0,0,0,0,0,0,0,0,0,0,0,0,0,0,0],"sum_hessian":[1.0601E4,8.411E3,2.19E3,2.453E3,5.958E3,1.772E3,4.18E2,1.971E3,4.82E2,5.457E3,5.01E2,1.383E3,3.89E2,2.63E2,1.55E2,1.512E3,4.59E2,1.96E2,2.86E2,2.74E3,2.717E3,3.16E2,1.85E2,8.09E2,5.74E2,2.04E2,1.85E2,9.4E1,1.69E2,8E1,7.5E1,1.67E2,1.345E3,3.1E2,1.49E2,6.8E1,1.28E2,1.54E2,1.32E2,2.253E3,4.87E2,3.94E2,2.323E3,1.46E2,1.7E2,1E0,1.84E2,4.89E2,3.2E2,5.56E2,1.8E1,7.3E1,1.31E2,2.6E1,1.59E2,6.2E1,3.2E1,1.12E2,5.7E1,1.5E1,6.5E1,1.4E1,6.1E1,2.5E1,1.42E2,6.59E2,6.86E2,1.72E2,1.38E2,4.7E1,1.02E2,1.3E1,5.5E1,1.19E2,9E0,1.26E2,2.8E1,1.26E2,6E0,1.048E3,1.205E3,2.77E2,2.1E2,3E2,9.4E1,1.862E3,4.61E2,1.43E2,3E0,2.9E1,1.41E2,1E0,1.83E2,2.27E2,2.62E2,2.65E2,5.5E1,3.84E2,1.72E2,3E0,1.5E1,1.8E1,5.5E1,1.19E2,1.2E1,1.8E1,8E0,9.4E1,6.5E1,3.1E1,3.1E1,2.1E1,1.1E1,9.9E1,1.3E1,3E1,2.7E1,1.4E1,1E0,2E0,1.2E1,4.7E1,1.4E1],"tree_param":{"num_deleted":"0","num_feature":"8","num_nodes":"123","size_leaf_vector":"1"}},{"base_weights":[-1.4462138E-3,-1.4811487E-1,6.886919E-1,-4.7594123E-2,-6.5319204E-1,9.189353E-1,-2.496644E-1,5.154533E-1,-1.7320949E-1,-5.2383405E-1,-9.216314E-1,7.028521E-1,1.7031044E0,2.2604712E-3,-6.1143845E-1,1.0465286E0,2.9247054E-1,-5.370459E-3,-8.053859E-1,1.323567E-1,-6.683059E-1,-9.7635907E-1,-6.5480584E-1,4.5577925E-1,1.3039535E0,1.4557817E0,2.1611223E0,3.472253E-1,-4.3971816E-1,-4.992786E-1,-9.9093616E-1,7.7985626E-1,1.3479277E0,7.0330083E-1,-1.86326E-1,6.4035165E-1,-2.2978699E-1,-3.3278713E-1,-1.109475E0,5.9237385E-1,-2.8197443E-2,-7.9539436E-1,-5.077381E-1,-8.6326605E-1,-1.0306803E0,-3.837746E-1,-9.4818014E-1,5.831577E-1,-1.0934251E-1,1.4216971E0,-2.277732E-1,1.5555394E0,7.1463585E-1,6.2735176E-1,2.227232E0,1.5837606E0,1.5814315E-1,-2.8440958E-1,-1.2424032E-1,-1.7329259E-1,-5.6703544E-1,-5.9839573E-2,-1.06975876E-1,1.4004216E-1,6.110855E-2,1.7420845E-1,6.272573E-2,1.10391095E-1,4.9880408E-2,-2.9099112E-2,3.485346E-2,9.495921E-2,2.0802982E-2,-8.243621E-3,-4.6348598E-2,2.584078E-3,-5.630682E-2,-7.765216E-2,-1.1547885E-1,-1.4977105E-2,7.319838E-2,-2.1300554E-2,1.6403561E-2,-6.1815437E-2,-8.914188E-2,-3.4593996E-2,-6.1887335E-2,-4.3562006E-2,-8.829293E-2,-1.0376225E-1,-3.1065742E-2,-5.8303308E-2,-1.2352523E-2,-7.284665E-2,-1.0803013E-1,1.2298741E-1,4.369082E-2,-1.8448326E-3,-5.929634E-2,1.6858649E-1,1.0058751E-1,9.984059E-3,-8.3240226E-2,1.7063272E-1,1.0312801E-1,2.6596887E-3,8.6525396E-2,1.0317047E-1,-8.756945E-3,2.2641353E-1,7.043841E-2,4.3911584E-2,1.7087731E-1,1.209074E-1,-5.2689067E-3,-1.739041E-3,-7.344292E-2,9.559237E-2,-4.8289195E-2,-7.524067E-3,-6.279018E-2],"categories":[],"categories_nodes":[],"categories_segments":[],"categories_sizes":[],"default_left":[0,0,0,0,0,0,0,0,0,0,0,0,0,0,0,0,0,0,0,0,0,0,0,0,0,0,0,0,0,0,0,0,0,0,0,0,0,0,0,0,0,0,0,0,0,0,0,0,0,0,0,0,0,0,0,0,0,0,0,0,0,0,0,0,0,0,0,0,0,0,0,0,0,0,0,0,0,0,0,0,0,0,0,0,0,0,0,0,0,0,0,0,0,0,0,0,0,0,0,0,0,0,0,0,0,0,0,0,0,0,0,0,0,0,0,0,0,0,0,0,0],"id":2,"left_children":[1,3,5,7,9,11,13,15,17,19,21,23,25,27,29,31,33,35,37,39,41,43,45,47,49,51,53,55,57,59,61,63,65,67,69,71,73,75,77,79,81,83,85,87,89,91,93,95,97,99,101,103,105,107,109,111,113,115,-1,117,119,-1,-1,-1,-1,-1,-1,-1,-1,-1,-1,-1,-1,-1,-1,-1,-1,-1,-1,-1,-1,-1,-1,-1,-1,-1,-1,-1,-1,-1,-1,-1,-1,-1,-1,-1,-1,-1,-1,-1,-1,-1,-1,-1,-1,-1,-1,-1,-1,-1,-1,-1,-1,-1,-1,-1,-1,-1,-1,-1,-1],"loss_changes":[1.067835E3,4.4165503E2,3.9977344E2,5.1339453E2,4.951526E1,2.5018933E2,3.3328354E1,1.5634894E2,6.296411E2,9.2762695E1,6.031616E0,1.7239917E2,3.274121E1,3.3076324E1,5.7408867E0,3.0162598E1,1.8390439E2,6.7988226E2,1.7840814E2,1.31459255E1,1.5811279E1,1.2922058E0,6.1025505E0,5.9714188E1,6.1582214E1,1.4261658E1,9.471008E0,2.8099773E1,1.1337032E1,2.434061E0,2.1409988E-1,2.0937057E1,5.0368683E1,4.0496582E1,2.427957E1,1.6145328E2,1.1981241E2,4.0452442E1,1.0331238E1,4.9339485E0,4.729299E0,6.8716736E0,6.1088104E0,5.9349823E-1,8.1744385E-1,2.1908846E0,1.6427994E-1,6.3233368E1,6.6535435E0,3.263678E1,5.108484E0,1.25911255E1,2.6858406E0,1.9192421E0,4.0091553E0,1.324379E0,2.3887344E1,9.645319E0,0E0,8.105606E0,2.7860126E0,0E0,0E0,0E0,0E0,0E0,0E0,0E0,0E0,0E0,0E0,0E0,0E0,0E0,0E0,0E0,0E0,0E0,0E0,0E0,0E0,0E0,0E0,0E0,0E0,0E0,0E0,0E0,0E0,0E0,0E0,0E0,0E0,0E0,0E0,0E0,0E0,0E0,0E0,0E0,0E0,0E0,0E0,0E0,0E0,0E0,0E0,0E0,0E0,0E0,0E0,0E0,0E0,0E0,0E0,0E0,0E0,0E0,0E0,0E0,0E0],"parents":[2147483647,0,0,1,1,2,2,3,3,4,4,5,5,6,6,7,7,8,8,9,9,10,10,11,11,12,12,13,13,14,14,15,15,16,16,17,17,18,18,19,19,20,20,21,21,22,22,23,23,24,24,25,25,26,26,27,27,28,28,29,29,30,30,31,31,32,32,33,33,34,34,35,35,36,36,37,37,38,38,39,39,40,40,41,41,42,42,43,43,44,44,45,45,46,46,47,47,48,48,49,49,50,50,51,51,52,52,53,53,54,54,55,55,56,56,57,57,59,59,60,60],"right_children":[2,4,6,8,10,12,14,16,18,20,22,24,26,28,30,32,34,36,38,40,42,44,46,48,50,52,54,56,58,60,62,64,66,68,70,72,74,76,78,80,82,84,86,88,90,92,94,96,98,100,102,104,106,108,110,112,114,116,-1,118,120,-1,-1,-1,-1,-1,-1,-1,-1,-1,-1,-1,-1,-1,-1,-1,-1,-1,-1,-1,-1,-1,-1,-1,-1,-1,-1,-1,-1,-1,-1,-1,-1,-1,-1,-1,-1,-1,-1,-1,-1,-1,-1,-1,-1,-1,-1,-1,-1,-1,-1,-1,-1,-1,-1,-1,-1,-1,-1,-1,-1],"split_conditions":[3.9931196E-1,1.070322E0,2.7927163E-1,-1.1306928E0,1.505593E0,9.0968835E-1,9.860761E-1,-1.3550655E0,-4.6950713E-1,-1.39994E0,-8.065992E-1,2.6913851E-1,-1.276202E-1,1.1828375E0,1.7536505E0,9.9075645E-1,9.111908E-1,6.393573E-1,-5.1242185E-1,1.2154124E0,-4.1567843E-2,-7.624341E-1,-6.8194777E-1,1.0937238E0,1.1030844E0,1.070322E0,-1.0355587E0,-9.4690096E-1,1.6964014E0,-1.5545077E0,-1.0004894E0,9.205515E-1,-1.4148982E0,-1.2204419E0,1.0375597E0,-6.8948275E-1,9.1857654E-1,-9.3125063E-1,-3.8278437E-1,-7.624341E-1,-5.596093E-2,-9.761251E-1,-9.5618093E-1,-1.5559516E0,3.8889137E-1,1.4803675E-1,1.7536505E0,-1.1306928E0,1.5430356E0,-9.271209E-2,1.3885846E0,9.58465E-1,-1.5559516E0,-3.740027E-2,1.0937238E0,-2.032062E0,-1.0160136E0,-8.3925337E-1,-1.2424032E-1,1.266896E0,-1.1314232E0,-5.9839573E-2,-1.06975876E-1,1.4004216E-1,6.110855E-2,1.7420845E-1,6.272573E-2,1.10391095E-1,4.9880408E-2,-2.9099112E-2,3.485346E-2,9.495921E-2,2.0802982E-2,-8.243621E-3,-4.6348598E-2,2.584078E-3,-5.630682E-2,-7.765216E-2,-1.1547885E-1,-1.4977105E-2,7.319838E-2,-2.1300554E-2,1.6403561E-2,-6.1815437E-2,-8.914188E-2,-3.4593996E-2,-6.1887335E-2,-4.3562006E-2,-8.829293E-2,-1.0376225E-1,-3.1065742E-2,-5.8303308E-2,-1.2352523E-2,-7.284665E-2,-1.0803013E-1,1.2298741E-1,4.369082E-2,-1.8448326E-3,-5.929634E-2,1.6858649E-1,1.0058751E-1,9.984059E-3,-8.3240226E-2,1.7063272E-1,1.0312801E-1,2.6596887E-3,8.6525396E-2,1.0317047E-1,-8.756945E-3,2.2641353E-1,7.043841E-2,4.3911584E-2,1.7087731E-1,1.209074E-1,-5.2689067E-3,-1.739041E-3,-7.344292E-2,9.559237E-2,-4.8289195E-2,-7.524067E-3,-6.279018E-2],"split_indices":[2,6,3,7,6,2,6,7,6,7,7,1,1,7,6,6,6,7,7,6,2,1,7,6,6,6,4,6,7,7,1,6,7,7,6,6,7,7,7,1,2,7,7,1,2,2,6,7,6,3,6,7,1,3,6,1,7,6,0,6,4,0,0,0,0,0,0,0,0,0,0,0,0,0,0,0,0,0,0,0,0,0,0,0,0,0,0,0,0,0,0,0,0,0,0,0,0,0,0,0,0,0,0,0,0,0,0,0,0,0,0,0,0,0,0,0,0,0,0,0,0],"split_type":[0,0,0,0,0,0,0,0,0,0,0,0,0,0,0,0,0,0,0,0,0,0,0,0,0,0,0,0,0,0,0,0,0,0,0,0,0,0,0,0,0,0,0,0,0,0,0,0,0,0,0,0,0,0,0,0,0,0,0,0,0,0,0,0,0,0,0,0,0,0,0,0,0,0,0,0,0,0,0,0,0,0,0,0,0,0,0,0,0,0,0,0,0,0,0,0,0,0,0,0,0,0,0,0,0,0,0,0,0,0,0,0,0,0,0,0,0,0,0,0,0],"sum_hessian":[1.0548E4,8.7E3,1.848E3,7.257E3,1.443E3,1.484E3,3.64E2,1.323E3,5.934E3,9.76E2,4.67E2,1.165E3,3.19E2,2.15E2,1.49E2,3.9E2,9.33E2,4.69E3,1.244E3,1.76E2,8E2,3.85E2,8.2E1,8.27E2,3.38E2,2.1E2,1.09E2,1.21E2,9.4E1,1.17E2,3.2E1,2.09E2,1.81E2,5.02E2,4.31E2,1.209E3,3.481E3,4.88E2,7.56E2,4.5E1,1.31E2,4.44E2,3.56E2,1.31E2,2.54E2,4.4E1,3.8E1,6.75E2,1.52E2,3.14E2,2.4E1,1.84E2,2.6E1,5E0,1.04E2,1.5E1,1.06E2,8E1,1.4E1,2.1E1,9.6E1,7E0,2.5E1,4.3E1,1.66E2,1.16E2,6.5E1,1.68E2,3.34E2,3.61E2,7E1,7.04E2,5.05E2,2.136E3,1.345E3,1.91E2,2.97E2,9.3E1,6.63E2,7E0,3.8E1,6.7E1,6.4E1,1.59E2,2.85E2,1.47E2,2.09E2,7E0,1.24E2,2.51E2,3E0,2.4E1,2E1,1.7E1,2.1E1,1.23E2,5.52E2,1.29E2,2.3E1,1.9E2,1.24E2,1.6E1,8E0,1.41E2,4.3E1,5E0,2.1E1,3E0,2E0,1.01E2,3E0,2E0,1.3E1,1.7E1,8.9E1,5.1E1,2.9E1,4E0,1.7E1,1.1E1,8.5E1],"tree_param":{"num_deleted":"0","num_feature":"8","num_nodes":"121","size_leaf_vector":"1"}},{"base_weights":[4.485218E-3,-2.6684535E-1,9.950328E-1,-6.036991E-1,-9.711822E-3,7.1003646E-1,1.7511244E0,-2.3583174E-1,-6.8908757E-1,4.7681442E-1,-1.821686E-1,1.1744695E0,4.5468774E-1,1.4450687E0,2.0984304E0,-4.40542E-1,1.1856727E-2,-3.5929576E-1,-7.669021E-1,7.967465E-1,3.0066994E-1,-3.3229914E-1,-3.7407246E-3,9.0574104E-1,1.4056425E0,2.1881875E-1,6.8776685E-1,1.7370073E0,1.1788923E0,3.9838064E-1,2.1388628E0,-2.2641438E-1,-5.728295E-1,2.6067874E-1,-2.839869E-1,-8.229816E-2,-4.7683734E-1,-9.157755E-1,-6.2849325E-1,5.155096E-1,1.0271624E0,1.2936273E-1,7.044787E-1,1.7020933E-1,-3.7143853E-1,3.04046E-1,-9.6356556E-2,1.2966374E0,6.971775E-1,1.9473418E0,1.2847965E0,3.7078038E-1,5.0046813E-2,8.8503546E-1,5.262493E-1,1.8185823E0,1.1173509E0,1.0158166E0,1.514239E0,8.525269E-1,-6.0937222E-2,2.1476011E0,-1.0828693E-2,-2.6860302E-2,1.2923396E-1,-5.095101E-2,-9.304383E-2,1.1557285E-1,1.2427211E-2,-1.0568096E-1,-2.161622E-2,-2.2905306E-3,-8.441632E-2,-4.2884674E-2,-9.36721E-2,-9.805874E-2,-8.195133E-2,-4.1718047E-2,-7.116591E-2,-2.405096E-2,5.7899226E-2,1.1660466E-1,3.455852E-2,3.154638E-2,-9.0032965E-3,7.978211E-2,2.6247272E-2,-3.1245494E-2,6.8064146E-2,-2.3255732E-2,-4.9568094E-2,4.532324E-2,1.2315011E-2,7.6467516E-3,-1.963587E-2,1.5796876E-1,4.0108733E-2,7.713244E-2,5.672866E-3,4.8749465E-2,2.0202659E-1,1.1194754E-1,1.5573566E-1,4.1956116E-2,-1.7256786E-3,1.416799E-1,2.211158E-3,1.0535344E-1,3.9332364E-2,4.23608E-2,7.335409E-2,1.5990087E-1,2.0969486E-1,1.3994786E-1,5.7457197E-2,6.841882E-2,1.19708695E-1,1.719707E-1,8.3131276E-2,-2.2518609E-2,1.47268E-1,2.199708E-1,1.8057133E-1],"categories":[],"categories_nodes":[],"categories_segments":[],"categories_sizes":[],"default_left":[0,0,0,0,0,0,0,0,0,0,0,0,0,0,0,0,0,0,0,0,0,0,0,0,0,0,0,0,0,0,0,0,0,0,0,0,0,0,0,0,0,0,0,0,0,0,0,0,0,0,0,0,0,0,0,0,0,0,0,0,0,0,0,0,0,0,0,0,0,0,0,0,0,0,0,0,0,0,0,0,0,0,0,0,0,0,0,0,0,0,0,0,0,0,0,0,0,0,0,0,0,0,0,0,0,0,0,0,0,0,0,0,0,0,0,0,0,0,0,0,0,0,0],"id":3,"left_children":[1,3,5,7,9,11,13,15,17,19,21,23,25,27,29,31,33,35,37,39,41,43,45,47,49,51,53,55,57,59,61,63,65,67,69,71,73,75,77,79,81,83,85,87,89,91,93,95,97,99,101,103,105,107,109,111,113,115,117,119,-1,121,-1,-1,-1,-1,-1,-1,-1,-1,-1,-1,-1,-1,-1,-1,-1,-1,-1,-1,-1,-1,-1,-1,-1,-1,-1,-1,-1,-1,-1,-1,-1,-1,-1,-1,-1,-1,-1,-1,-1,-1,-1,-1,-1,-1,-1,-1,-1,-1,-1,-1,-1,-1,-1,-1,-1,-1,-1,-1,-1,-1,-1],"loss_changes":[2.8436118E3,7.192818E2,4.887351E2,1.1266992E2,3.9533264E2,1.9545483E2,6.272888E1,3.4476357E1,7.4469604E1,6.913553E1,9.315877E1,3.489966E1,5.852832E1,2.3614807E1,1.8759277E1,1.0327805E1,2.274432E1,1.8105171E1,4.787805E1,2.763443E1,5.4958237E1,3.7235962E1,4.5361458E1,2.123497E1,1.766449E1,1.3609137E1,1.650319E1,5.6105347E0,7.9430847E0,4.205159E0,5.973877E0,9.471439E0,4.567314E0,2.0239613E1,7.0349836E0,7.4958463E0,8.11322E0,6.0914917E0,2.1135986E1,9.723919E0,2.2069672E1,2.2956448E1,9.462692E0,3.4001816E1,3.0059814E1,9.817837E0,2.1181118E1,2.2995972E1,8.468643E0,4.6195526E0,9.659393E0,5.347519E0,9.522637E0,1.9325638E1,5.913994E0,4.651062E0,2.214283E0,6.386917E0,6.173172E0,4.466459E0,0E0,6.331787E-1,0E0,0E0,0E0,0E0,0E0,0E0,0E0,0E0,0E0,0E0,0E0,0E0,0E0,0E0,0E0,0E0,0E0,0E0,0E0,0E0,0E0,0E0,0E0,0E0,0E0,0E0,0E0,0E0,0E0,0E0,0E0,0E0,0E0,0E0,0E0,0E0,0E0,0E0,0E0,0E0,0E0,0E0,0E0,0E0,0E0,0E0,0E0,0E0,0E0,0E0,0E0,0E0,0E0,0E0,0E0,0E0,0E0,0E0,0E0,0E0,0E0],"parents":[2147483647,0,0,1,1,2,2,3,3,4,4,5,5,6,6,7,7,8,8,9,9,10,10,11,11,12,12,13,13,14,14,15,15,16,16,17,17,18,18,19,19,20,20,21,21,22,22,23,23,24,24,25,25,26,26,27,27,28,28,29,29,30,30,31,31,32,32,33,33,34,34,35,35,36,36,37,37,38,38,39,39,40,40,41,41,42,42,43,43,44,44,45,45,46,46,47,47,48,48,49,49,50,50,51,51,52,52,53,53,54,54,55,55,56,56,57,57,58,58,59,59,61,61],"right_children":[2,4,6,8,10,12,14,16,18,20,22,24,26,28,30,32,34,36,38,40,42,44,46,48,50,52,54,56,58,60,62,64,66,68,70,72,74,76,78,80,82,84,86,88,90,92,94,96,98,100,102,104,106,108,110,112,114,116,118,120,-1,122,-1,-1,-1,-1,-1,-1,-1,-1,-1,-1,-1,-1,-1,-1,-1,-1,-1,-1,-1,-1,-1,-1,-1,-1,-1,-1,-1,-1,-1,-1,-1,-1,-1,-1,-1,-1,-1,-1,-1,-1,-1,-1,-1,-1,-1,-1,-1,-1,-1,-1,-1,-1,-1,-1,-1,-1,-1,-1,-1,-1,-1],"split_conditions":[6.085094E-1,-5.019095E-1,1.6547557E0,-7.323306E-2,-5.9166286E-2,-3.7246544E-2,2.392952E0,-8.31753E-1,-7.1825945E-1,-9.3090944E-2,2.9799739E-2,8.962889E-1,9.6208954E-1,-2.3550767E-2,-1.1894696E0,-6.7276317E-1,-4.2453834E-1,-4.4716527E-3,-8.6888075E-1,-1.6219324E-1,1.2826441E-1,-1.39994E0,-1.1306928E0,-7.2508805E-2,-8.214679E-2,1.9898103E-3,-7.608311E-3,8.73702E-1,-1.16942465E-1,1.0086317E-1,1.02669954E-1,4.7368738E-1,1.2825587E0,-1.20596215E-1,-1.3631997E-1,1.222726E0,8.73702E-1,4.3991506E-1,-4.1334575E-1,-9.6344054E-1,7.440645E-1,-1.8717377E-1,8.487717E-1,-1.4747308E0,-1.6136833E-1,-1.7930672E-2,-2.2059355E-2,8.637299E-1,5.6594086E-1,-4.065248E-1,1.2978146E0,1.048214E0,-1.104159E0,8.637299E-1,1.3804724E0,4.3991506E-1,-3.9149042E-2,-1.9828378E-1,9.1857654E-1,-8.436457E-2,-6.0937222E-2,8.73702E-1,-1.0828693E-2,-2.6860302E-2,1.2923396E-1,-5.095101E-2,-9.304383E-2,1.1557285E-1,1.2427211E-2,-1.0568096E-1,-2.161622E-2,-2.2905306E-3,-8.441632E-2,-4.2884674E-2,-9.36721E-2,-9.805874E-2,-8.195133E-2,-4.1718047E-2,-7.116591E-2,-2.405096E-2,5.7899226E-2,1.1660466E-1,3.455852E-2,3.154638E-2,-9.0032965E-3,7.978211E-2,2.6247272E-2,-3.1245494E-2,6.8064146E-2,-2.3255732E-2,-4.9568094E-2,4.532324E-2,1.2315011E-2,7.6467516E-3,-1.963587E-2,1.5796876E-1,4.0108733E-2,7.713244E-2,5.672866E-3,4.8749465E-2,2.0202659E-1,1.1194754E-1,1.5573566E-1,4.1956116E-2,-1.7256786E-3,1.416799E-1,2.211158E-3,1.0535344E-1,3.9332364E-2,4.23608E-2,7.335409E-2,1.5990087E-1,2.0969486E-1,1.3994786E-1,5.7457197E-2,6.841882E-2,1.19708695E-1,1.719707E-1,8.3131276E-2,-2.2518609E-2,1.47268E-1,2.199708E-1,1.8057133E-1],"split_indices":[0,0,0,5,5,5,0,0,2,5,0,0,0,5,4,2,2,5,0,0,0,7,7,5,5,5,5,7,3,7,5,3,7,5,5,7,7,7,2,4,7,2,7,7,2,5,5,7,2,3,0,7,4,7,0,7,5,4,7,5,0,7,0,0,0,0,0,0,0,0,0,0,0,0,0,0,0,0,0,0,0,0,0,0,0,0,0,0,0,0,0,0,0,0,0,0,0,0,0,0,0,0,0,0,0,0,0,0,0,0,0,0,0,0,0,0,0,0,0,0,0,0,0],"split_type":[0,0,0,0,0,0,0,0,0,0,0,0,0,0,0,0,0,0,0,0,0,0,0,0,0,0,0,0,0,0,0,0,0,0,0,0,0,0,0,0,0,0,0,0,0,0,0,0,0,0,0,0,0,0,0,0,0,0,0,0,0,0,0,0,0,0,0,0,0,0,0,0,0,0,0,0,0,0,0,0,0,0,0,0,0,0,0,0,0,0,0,0,0,0,0,0,0,0,0,0,0,0,0,0,0,0,0,0,0,0,0,0,0,0,0,0,0,0,0,0,0,0,0],"sum_hessian":[1.0578E4,8.304E3,2.274E3,3.594E3,4.71E3,1.653E3,6.21E2,6.78E2,2.916E3,1.232E3,3.478E3,5.85E2,1.068E3,3.33E2,2.88E2,3.71E2,3.07E2,5.58E2,2.358E3,4.36E2,7.96E2,1.888E3,1.59E3,2.73E2,3.12E2,5.32E2,5.36E2,1.56E2,1.77E2,7E0,2.81E2,1.43E2,2.28E2,1.67E2,1.4E2,1.67E2,3.91E2,1.133E3,1.225E3,1.98E2,2.38E2,5.6E2,2.36E2,1.36E2,1.752E3,3.67E2,1.223E3,9.3E1,1.8E2,5.4E1,2.58E2,2.79E2,2.53E2,2.39E2,2.97E2,1.36E2,2E1,1.22E2,5.5E1,5E0,2E0,2.8E2,1E0,1.4E2,3E0,1.96E2,3.2E1,2.1E1,1.46E2,1E1,1.3E2,1.56E2,1.1E1,3.56E2,3.5E1,6.71E2,4.62E2,3.48E2,8.77E2,1.5E1,1.83E2,1.97E2,4.1E1,3.03E2,2.57E2,1.94E2,4.2E1,7E1,6.6E1,8.29E2,9.23E2,2E2,1.67E2,4.48E2,7.75E2,7E1,2.3E1,1.61E2,1.9E1,3E0,5.1E1,1.64E2,9.4E1,2.48E2,3.1E1,4E0,2.49E2,1.77E2,6.2E1,2.01E2,9.6E1,8E1,5.6E1,1.2E1,8E0,4.5E1,7.7E1,4.1E1,1.4E1,2E0,3E0,2.38E2,4.2E1],"tree_param":{"num_deleted":"0","num_feature":"8","num_nodes":"123","size_leaf_vector":"1"}},{"base_weights":[3.8663624E-3,-1.3201609E-1,5.342135E-1,2.0783678E-1,-3.0163282E-1,7.021719E-1,-1.7882541E-1,-4.976208E-2,4.3891948E-1,-3.9242303E-1,-9.792464E-2,5.3633815E-1,1.405168E0,-2.4910985E-1,5.3374773E-1,5.2789436E-3,-5.6763E-1,1.601935E-1,7.699342E-1,-3.4494704E-1,-6.6787E-1,9.57447E-3,-3.8104773E-1,3.553832E-1,9.482252E-1,1.2303712E0,1.8131278E0,1.6480288E-2,-3.6897394E-1,7.066613E-2,1.2823342E0,-1.6511206E-1,2.0867138E-1,-4.6813503E-1,-9.508439E-1,4.8978823E-1,-5.066856E-1,1.3868119E0,5.053953E-1,-5.0637114E-1,-2.0404351E-1,9.4894457E-1,-6.812203E-1,9.468972E-2,-3.3637857E-1,-2.3318604E-1,-5.293772E-1,7.3901254E-1,2.7094325E-1,6.8985665E-1,1.3187152E0,1.1122136E0,1.5700555E0,5.492453E-1,1.8893261E-1,-1.545203E-1,9.711236E-1,3.6386067E-1,-4.193426E-1,1.4285226E-1,-1.1316276E-1,1.4285135E0,-2.5899827E-2,7.4352706E-3,-4.46806E-2,8.743608E-2,-7.2449357E-3,3.2456573E-2,-4.880357E-2,7.3423074E-3,-1.0474507E-1,-6.1773624E-2,5.757394E-2,-6.241567E-2,-8.4258495E-3,1.12386E-1,1.7384966E-1,6.1475553E-2,-3.506664E-2,-2.039792E-2,-7.956639E-2,-2.623915E-4,-4.180643E-2,2.042783E-1,-4.278753E-2,-6.4346656E-2,-1.0537046E-1,-7.1208426E-3,3.726715E-2,-3.0701606E-2,-9.293365E-2,-3.1351228E-3,-3.5557274E-2,4.2441532E-2,-5.4808237E-2,4.2961203E-2,1.0872326E-1,3.41229E-2,-2.2698358E-2,8.642611E-2,6.7113834E-3,8.260428E-2,1.4625476E-1,1.5353325E-1,9.434057E-2,3.2829143E-2,1.6300009E-1,8.25903E-2,-6.159922E-3,3.642635E-2,-4.535903E-2,1.3413868E-2,1.3701044E-1,1.00568414E-1,2.0457195E-2,-1.2438065E-2,-5.219025E-2,-3.34296E-2,6.855494E-2,1.7782322E-1,4.933174E-2],"categories":[],"categories_nodes":[],"categories_segments":[],"categories_sizes":[],"default_left":[0,0,0,0,0,0,0,0,0,0,0,0,0,0,0,0,0,0,0,0,0,0,0,0,0,0,0,0,0,0,0,0,0,0,0,0,0,0,0,0,0,0,0,0,0,0,0,0,0,0,0,0,0,0,0,0,0,0,0,0,0,0,0,0,0,0,0,0,0,0,0,0,0,0,0,0,0,0,0,0,0,0,0,0,0,0,0,0,0,0,0,0,0,0,0,0,0,0,0,0,0,0,0,0,0,0,0,0,0,0,0,0,0,0,0,0,0,0,0,0,0],"id":4,"left_children":[1,3,5,7,9,11,13,15,17,19,21,23,25,27,29,31,33,35,37,39,41,43,45,47,49,51,53,55,57,59,61,63,65,67,69,71,73,75,77,79,81,83,85,87,89,91,93,95,97,99,101,103,105,107,-1,109,111,113,115,-1,117,119,-1,-1,-1,-1,-1,-1,-1,-1,-1,-1,-1,-1,-1,-1,-1,-1,-1,-1,-1,-1,-1,-1,-1,-1,-1,-1,-1,-1,-1,-1,-1,-1,-1,-1,-1,-1,-1,-1,-1,-1,-1,-1,-1,-1,-1,-1,-1,-1,-1,-1,-1,-1,-1,-1,-1,-1,-1,-1,-1],"loss_changes":[7.585935E2,4.8307727E2,2.5730457E2,1.6614009E2,1.03298004E2,2.0166913E2,2.0638447E1,3.7684483E1,1.3550165E2,5.0224487E1,5.2542004E1,1.0447513E2,2.106842E1,1.19475155E1,1.2600376E1,4.1418365E1,4.2552147E0,1.7608636E2,1.0877231E2,7.488492E1,1.2858307E1,3.6844475E1,1.0218117E1,3.1444534E1,3.995456E1,7.417572E0,8.060089E0,1.9331333E1,9.6814E0,6.28391E0,3.6412888E0,4.3916714E1,1.02134346E2,1.7995987E0,2.6480885E0,5.1374878E1,1.3026665E1,1.6347656E1,4.44302E1,1.3419421E2,7.599931E1,8.5656395E0,7.0695496E0,4.640393E1,3.8914948E0,5.8786144E0,4.455414E0,1.8343369E1,2.8261597E1,2.754419E1,1.0963898E1,1.1017471E1,3.5864868E0,1.3102689E0,0E0,1.5689427E1,5.676731E0,1.4112387E0,7.191265E0,0E0,4.07973E0,3.1473331E0,0E0,0E0,0E0,0E0,0E0,0E0,0E0,0E0,0E0,0E0,0E0,0E0,0E0,0E0,0E0,0E0,0E0,0E0,0E0,0E0,0E0,0E0,0E0,0E0,0E0,0E0,0E0,0E0,0E0,0E0,0E0,0E0,0E0,0E0,0E0,0E0,0E0,0E0,0E0,0E0,0E0,0E0,0E0,0E0,0E0,0E0,0E0,0E0,0E0,0E0,0E0,0E0,0E0,0E0,0E0,0E0,0E0,0E0,0E0],"parents":[2147483647,0,0,1,1,2,2,3,3,4,4,5,5,6,6,7,7,8,8,9,9,10,10,11,11,12,12,13,13,14,14,15,15,16,16,17,17,18,18,19,19,20,20,21,21,22,22,23,23,24,24,25,25,26,26,27,27,28,28,29,29,30,30,31,31,32,32,33,33,34,34,35,35,36,36,37,37,38,38,39,39,40,40,41,41,42,42,43,43,44,44,45,45,46,46,47,47,48,48,49,49,50,50,51,51,52,52,53,53,55,55,56,56,57,57,58,58,60,60,61,61],"right_children":[2,4,6,8,10,12,14,16,18,20,22,24,26,28,30,32,34,36,38,40,42,44,46,48,50,52,54,56,58,60,62,64,66,68,70,72,74,76,78,80,82,84,86,88,90,92,94,96,98,100,102,104,106,108,-1,110,112,114,116,-1,118,120,-1,-1,-1,-1,-1,-1,-1,-1,-1,-1,-1,-1,-1,-1,-1,-1,-1,-1,-1,-1,-1,-1,-1,-1,-1,-1,-1,-1,-1,-1,-1,-1,-1,-1,-1,-1,-1,-1,-1,-1,-1,-1,-1,-1,-1,-1,-1,-1,-1,-1,-1,-1,-1,-1,-1,-1,-1,-1,-1],"split_conditions":[3.398337E-1,-4.9680647E-2,2.6531193E-1,3.1083276E-2,1.663588E-2,9.0968835E-1,8.246007E-1,1.2177399E0,4.3991506E-1,9.086044E-1,-2.9416207E-2,1.8978676E-1,1.1043502E-1,6.857848E-1,-2.4317476E-1,3.7011024E-1,1.4121962E0,-1.140665E0,6.09441E-1,4.3991506E-1,-1.2158543E0,9.086044E-1,8.9187965E-2,-3.7246544E-2,5.6594086E-1,1.2283212E0,-1.0170895E0,1.1751459E0,-1.7940068E0,-1.20596215E-1,1.9142162E0,-1.0359578E0,6.2938523E-1,-1.7940068E0,-2.2016117E-1,-1.5295775E0,-7.863488E-2,-1.5261173E-1,1.2177399E0,-1.0160136E0,2.8365642E-2,5.0719374E-1,1.5717499E0,4.3991506E-1,1.4121962E0,-2.2497352E-2,-1.104159E0,5.152022E-1,3.1011669E-2,4.131086E-3,4.27842E-1,-2.2497352E-2,-3.7246544E-2,-3.740027E-2,1.8893261E-1,-5.233211E-2,-1.9527103E0,-1.0229395E-1,-7.483359E-2,1.4285226E-1,-6.178008E-1,2.1051865E-2,-2.5899827E-2,7.4352706E-3,-4.46806E-2,8.743608E-2,-7.2449357E-3,3.2456573E-2,-4.880357E-2,7.3423074E-3,-1.0474507E-1,-6.1773624E-2,5.757394E-2,-6.241567E-2,-8.4258495E-3,1.12386E-1,1.7384966E-1,6.1475553E-2,-3.506664E-2,-2.039792E-2,-7.956639E-2,-2.623915E-4,-4.180643E-2,2.042783E-1,-4.278753E-2,-6.4346656E-2,-1.0537046E-1,-7.1208426E-3,3.726715E-2,-3.0701606E-2,-9.293365E-2,-3.1351228E-3,-3.5557274E-2,4.2441532E-2,-5.4808237E-2,4.2961203E-2,1.0872326E-1,3.41229E-2,-2.2698358E-2,8.642611E-2,6.7113834E-3,8.260428E-2,1.4625476E-1,1.5353325E-1,9.434057E-2,3.2829143E-2,1.6300009E-1,8.25903E-2,-6.159922E-3,3.642635E-2,-4.535903E-2,1.3413868E-2,1.3701044E-1,1.00568414E-1,2.0457195E-2,-1.2438065E-2,-5.219025E-2,-3.34296E-2,6.855494E-2,1.7782322E-1,4.933174E-2],"split_indices":[2,5,3,1,2,2,1,7,7,7,3,1,1,3,7,7,7,7,7,7,4,7,3,5,2,2,4,2,1,5,3,7,7,1,3,7,7,2,7,7,5,1,7,7,7,5,4,2,3,3,1,5,5,3,0,5,1,5,5,0,4,5,0,0,0,0,0,0,0,0,0,0,0,0,0,0,0,0,0,0,0,0,0,0,0,0,0,0,0,0,0,0,0,0,0,0,0,0,0,0,0,0,0,0,0,0,0,0,0,0,0,0,0,0,0,0,0,0,0,0,0],"split_type":[0,0,0,0,0,0,0,0,0,0,0,0,0,0,0,0,0,0,0,0,0,0,0,0,0,0,0,0,0,0,0,0,0,0,0,0,0,0,0,0,0,0,0,0,0,0,0,0,0,0,0,0,0,0,0,0,0,0,0,0,0,0,0,0,0,0,0,0,0,0,0,0,0,0,0,0,0,0,0,0,0,0,0,0,0,0,0,0,0,0,0,0,0,0,0,0,0,0,0,0,0,0,0,0,0,0,0,0,0,0,0,0,0,0,0,0,0,0,0,0,0],"sum_hessian":[1.0524E4,8.378E3,2.146E3,2.789E3,5.589E3,1.737E3,4.09E2,1.319E3,1.47E3,3.865E3,1.724E3,1.407E3,3.3E2,3.73E2,3.6E1,1.193E3,1.26E2,7.99E2,6.71E2,3.299E3,5.66E2,1.25E3,4.74E2,9.79E2,4.28E2,2.34E2,9.6E1,1.16E2,2.57E2,2.3E1,1.3E1,6.49E2,5.44E2,1.02E2,2.4E1,5.35E2,2.64E2,2E2,4.71E2,1.536E3,1.763E3,4E0,5.62E2,1.004E3,2.46E2,2.39E2,2.35E2,1.75E2,8.04E2,2.54E2,1.74E2,1.77E2,5.7E1,6E0,9E1,9.9E1,1.7E1,1.6E1,2.41E2,2E0,2.1E1,1.2E1,1E0,3.51E2,2.98E2,1.61E2,3.83E2,2E0,1E2,2E0,2.2E1,3.8E1,4.97E2,2.06E2,5.8E1,1.17E2,8.3E1,4.18E2,5.3E1,7.52E2,7.84E2,9.09E2,8.54E2,2E0,2E0,5.13E2,4.9E1,6.29E2,3.75E2,2.36E2,1E1,9.1E1,1.48E2,4E0,2.31E2,9.4E1,8.1E1,7.05E2,9.9E1,1.98E2,5.6E1,4.1E1,1.33E2,4.8E1,1.29E2,3E0,5.4E1,4E0,2E0,3.6E1,6.3E1,6E0,1.1E1,2E0,1.4E1,6.3E1,1.78E2,1.7E1,4E0,8E0,4E0],"tree_param":{"num_deleted":"0","num_feature":"8","num_nodes":"121","size_leaf_vector":"1"}},{"base_weights":[-7.6290447E-4,-2.2382872E-1,8.262267E-1,-4.765106E-1,3.4438565E-2,5.676048E-1,1.4275488E0,-3.1282935E-1,-5.97469E-1,-1.8719835E-2,5.8275926E-1,4.6794656E-1,1.0856317E0,1.168866E0,1.7341844E0,-4.8896936E-1,-1.16588354E-1,-7.497663E-1,-4.7242364E-1,4.4206902E-2,-3.4471244E-1,1.0530303E0,2.8293145E-1,2.5872514E-1,6.309105E-1,1.1203539E0,-1.0961832E-1,9.2707026E-1,1.5344617E0,2.924257E-1,1.7615292E0,-2.600395E-1,-6.3489324E-1,7.1947044E-1,-1.652602E-1,-4.1576877E-1,-7.7001876E-1,-3.200664E-1,-5.734087E-1,1.2226095E-1,-2.4582438E-1,-5.906465E-2,-4.3813366E-1,1.1536621E0,-3.8067517E-1,5.217133E-1,-6.0519274E-2,-2.154087E-2,4.3016252E-1,5.259587E-1,9.521298E-1,9.868834E-1,1.4699187E0,3.6391612E-2,-3.447825E-1,1.273156E0,8.358563E-1,1.6767793E0,1.0323467E0,7.9127306E-1,-6.031285E-2,1.7747552E0,3.0750081E-2,-5.2651625E-2,-1.0495106E-2,-7.217353E-2,-4.7879983E-2,-8.023143E-3,8.881332E-2,-2.1420808E-3,-2.9949507E-2,1.08438306E-1,-6.780143E-2,-3.477515E-2,-7.870716E-2,-4.8509073E-2,-2.1770895E-2,-2.4976572E-2,-6.0143996E-2,6.1513007E-2,8.338312E-3,6.0335005E-5,-5.6408476E-2,1.5155769E-2,-5.9881795E-2,-4.963946E-2,-3.184957E-2,8.3841465E-2,1.6582046E-1,-7.05916E-2,-2.9528642E-3,9.551656E-2,2.025461E-2,2.4570657E-2,-3.425528E-2,1.4586312E-2,-2.0375883E-2,1.3344373E-1,3.645792E-2,5.7370868E-2,1.8491043E-2,5.914144E-2,1.1029009E-1,3.0262569E-2,1.0285454E-1,1.7304301E-1,1.1167468E-1,-5.154516E-2,-0E0,5.6123465E-2,1.4092138E-1,4.0842164E-2,8.8548765E-2,1.7960633E-1,1.2310312E-1,1.6896711E-1,8.040988E-2,-1.3807261E-2,1.4901944E-1,1.8513058E-1,1.5368764E-1],"categories":[],"categories_nodes":[],"categories_segments":[],"categories_sizes":[],"default_left":[0,0,0,0,0,0,0,0,0,0,0,0,0,0,0,0,0,0,0,0,0,0,0,0,0,0,0,0,0,0,0,0,0,0,0,0,0,0,0,0,0,0,0,0,0,0,0,0,0,0,0,0,0,0,0,0,0,0,0,0,0,0,0,0,0,0,0,0,0,0,0,0,0,0,0,0,0,0,0,0,0,0,0,0,0,0,0,0,0,0,0,0,0,0,0,0,0,0,0,0,0,0,0,0,0,0,0,0,0,0,0,0,0,0,0,0,0,0,0,0,0],"id":5,"left_children":[1,3,5,7,9,11,13,15,17,19,21,23,25,27,29,31,33,35,37,39,41,43,45,47,49,51,53,55,57,59,61,63,65,67,69,71,73,75,77,79,81,83,85,87,89,91,93,95,97,99,101,103,105,-1,107,109,111,113,115,117,-1,119,-1,-1,-1,-1,-1,-1,-1,-1,-1,-1,-1,-1,-1,-1,-1,-1,-1,-1,-1,-1,-1,-1,-1,-1,-1,-1,-1,-1,-1,-1,-1,-1,-1,-1,-1,-1,-1,-1,-1,-1,-1,-1,-1,-1,-1,-1,-1,-1,-1,-1,-1,-1,-1,-1,-1,-1,-1,-1,-1],"loss_changes":[1.9599669E3,5.461519E2,3.499878E2,8.3470215E1,1.2071027E2,8.090512E1,5.1462402E1,6.2101044E1,4.581964E1,7.746381E1,5.117457E1,4.4992615E1,1.076532E1,3.1127533E1,1.1422302E1,3.1414627E1,3.47742E1,6.9613647E0,2.0313324E1,7.164469E1,1.6229279E1,2.1003723E1,1.8529902E1,2.8062157E1,2.4467255E1,9.82782E0,1.0144253E0,5.859268E0,8.431183E0,3.6232677E0,5.053833E0,1.5214087E1,7.369446E0,6.4914017E0,1.5543255E1,2.6266117E1,7.029724E0,8.877941E0,7.049591E0,4.76681E1,5.2681995E1,1.7415464E1,2.966713E0,1.9514496E1,1.0476826E0,1.8090485E1,8.125886E0,6.807401E0,2.0812134E1,9.002808E0,9.076462E0,4.743988E0,3.8551788E0,0E0,3.4951144E-1,3.3708649E0,3.3699265E0,3.4413757E0,3.643116E0,3.5886645E0,0E0,2.26062E0,0E0,0E0,0E0,0E0,0E0,0E0,0E0,0E0,0E0,0E0,0E0,0E0,0E0,0E0,0E0,0E0,0E0,0E0,0E0,0E0,0E0,0E0,0E0,0E0,0E0,0E0,0E0,0E0,0E0,0E0,0E0,0E0,0E0,0E0,0E0,0E0,0E0,0E0,0E0,0E0,0E0,0E0,0E0,0E0,0E0,0E0,0E0,0E0,0E0,0E0,0E0,0E0,0E0,0E0,0E0,0E0,0E0,0E0,0E0],"parents":[2147483647,0,0,1,1,2,2,3,3,4,4,5,5,6,6,7,7,8,8,9,9,10,10,11,11,12,12,13,13,14,14,15,15,16,16,17,17,18,18,19,19,20,20,21,21,22,22,23,23,24,24,25,25,26,26,27,27,28,28,29,29,30,30,31,31,32,32,33,33,34,34,35,35,36,36,37,37,38,38,39,39,40,40,41,41,42,42,43,43,44,44,45,45,46,46,47,47,48,48,49,49,50,50,51,51,52,52,54,54,55,55,56,56,57,57,58,58,59,59,61,61],"right_children":[2,4,6,8,10,12,14,16,18,20,22,24,26,28,30,32,34,36,38,40,42,44,46,48,50,52,54,56,58,60,62,64,66,68,70,72,74,76,78,80,82,84,86,88,90,92,94,96,98,100,102,104,106,-1,108,110,112,114,116,118,-1,120,-1,-1,-1,-1,-1,-1,-1,-1,-1,-1,-1,-1,-1,-1,-1,-1,-1,-1,-1,-1,-1,-1,-1,-1,-1,-1,-1,-1,-1,-1,-1,-1,-1,-1,-1,-1,-1,-1,-1,-1,-1,-1,-1,-1,-1,-1,-1,-1,-1,-1,-1,-1,-1,-1,-1,-1,-1,-1,-1],"split_conditions":[6.085094E-1,-3.9042124E-1,1.5406417E0,-4.5794097E-1,1.5387664E0,6.658972E-1,2.2444935E0,-8.6888075E-1,-7.907392E-1,1.0937238E0,-1.3550655E0,8.962889E-1,1.098404E0,-1.276202E-1,-1.1894696E0,-7.8677624E-1,-1.3849818E0,-1.003065E0,-1.9839522E-1,9.1857654E-1,-1.39994E0,1.098404E0,7.988628E-1,-8.417859E-1,-4.8268467E-2,1.1597016E0,-1.320163E0,-1.2054838E0,9.111908E-1,1.4594146E0,1.3605026E0,-7.596877E-1,-1.0122979E0,-1.4498005E0,6.642876E-1,1.1678793E0,-1.104159E0,-6.2458336E-1,-9.141387E-1,-1.3052049E0,-9.18819E-1,1.4541093E0,1.5016295E-1,9.954368E-1,-1.6342846E0,6.2938523E-1,-1.3101909E0,-4.6950713E-1,-2.0810004E-1,1.0750024E0,1.0776213E0,-9.3001986E-1,4.330535E-1,3.6391612E-2,9.833042E-1,-6.512214E-1,1.5926836E0,6.9919E-1,-1.4198842E0,1.1043502E-1,-6.031285E-2,7.6400876E-1,3.0750081E-2,-5.2651625E-2,-1.0495106E-2,-7.217353E-2,-4.7879983E-2,-8.023143E-3,8.881332E-2,-2.1420808E-3,-2.9949507E-2,1.08438306E-1,-6.780143E-2,-3.477515E-2,-7.870716E-2,-4.8509073E-2,-2.1770895E-2,-2.4976572E-2,-6.0143996E-2,6.1513007E-2,8.338312E-3,6.0335005E-5,-5.6408476E-2,1.5155769E-2,-5.9881795E-2,-4.963946E-2,-3.184957E-2,8.3841465E-2,1.6582046E-1,-7.05916E-2,-2.9528642E-3,9.551656E-2,2.025461E-2,2.4570657E-2,-3.425528E-2,1.4586312E-2,-2.0375883E-2,1.3344373E-1,3.645792E-2,5.7370868E-2,1.8491043E-2,5.914144E-2,1.1029009E-1,3.0262569E-2,1.0285454E-1,1.7304301E-1,1.1167468E-1,-5.154516E-2,-0E0,5.6123465E-2,1.4092138E-1,4.0842164E-2,8.8548765E-2,1.7960633E-1,1.2310312E-1,1.6896711E-1,8.040988E-2,-1.3807261E-2,1.4901944E-1,1.8513058E-1,1.5368764E-1],"split_indices":[0,0,0,2,1,1,0,0,0,6,7,0,6,1,4,2,7,6,2,7,7,6,6,1,1,0,7,7,6,1,6,6,0,7,7,7,4,0,6,7,6,6,0,6,7,7,7,6,2,6,0,4,2,0,1,4,0,7,7,1,0,7,0,0,0,0,0,0,0,0,0,0,0,0,0,0,0,0,0,0,0,0,0,0,0,0,0,0,0,0,0,0,0,0,0,0,0,0,0,0,0,0,0,0,0,0,0,0,0,0,0,0,0,0,0,0,0,0,0,0,0],"split_type":[0,0,0,0,0,0,0,0,0,0,0,0,0,0,0,0,0,0,0,0,0,0,0,0,0,0,0,0,0,0,0,0,0,0,0,0,0,0,0,0,0,0,0,0,0,0,0,0,0,0,0,0,0,0,0,0,0,0,0,0,0,0,0,0,0,0,0,0,0,0,0,0,0,0,0,0,0,0,0,0,0,0,0,0,0,0,0,0,0,0,0,0,0,0,0,0,0,0,0,0,0,0,0,0,0,0,0,0,0,0,0,0,0,0,0,0,0,0,0,0,0],"sum_hessian":[1.0623E4,8.367E3,2.256E3,4.229E3,4.138E3,1.579E3,6.77E2,1.799E3,2.43E3,3.773E3,3.65E2,1.326E3,2.53E2,3.7E2,3.07E2,9.47E2,8.52E2,1.093E3,1.337E3,3.163E3,6.1E2,1.41E2,2.24E2,5.82E2,7.44E2,2.46E2,7E0,2.25E2,1.45E2,6E0,3.01E2,3.7E2,5.77E2,4.6E1,8.06E2,6.4E1,1.029E3,5.35E2,8.02E2,2.493E3,6.7E2,1.51E2,4.59E2,1.32E2,9E0,1.32E2,9.2E1,2.21E2,3.61E2,5.63E2,1.81E2,1.81E2,6.5E1,2E0,5E0,4.4E1,1.81E2,1.11E2,3.4E1,4E0,2E0,2.98E2,3E0,1.35E2,2.35E2,3.68E2,2.09E2,8E0,3.8E1,3.9E2,4.16E2,9E0,5.5E1,4.1E1,9.88E2,2.03E2,3.32E2,6.5E1,7.37E2,1.81E2,2.312E3,3.78E2,2.92E2,1.09E2,4.2E1,3.06E2,1.53E2,8.3E1,4.9E1,4E0,5E0,5.5E1,7.7E1,4.4E1,4.8E1,1.15E2,1.06E2,2.3E1,3.38E2,4.93E2,7E1,5.5E1,1.26E2,1.1E1,1.7E2,3.5E1,3E1,3E0,2E0,8E0,3.6E1,2E1,1.61E2,8.5E1,2.6E1,7E0,2.7E1,2E0,2E0,2.2E2,7.8E1],"tree_param":{"num_deleted":"0","num_feature":"8","num_nodes":"121","size_leaf_vector":"1"}},{"base_weights":[-1.3961318E-3,-1.0393101E-1,4.238151E-1,-3.1421598E-2,-4.7892413E-1,5.7814056E-1,-2.0343138E-1,3.9929745E-1,-1.2918578E-1,-3.7411827E-1,-7.022889E-1,7.445838E-1,-3.0210761E-2,-2.722525E-2,-5.0532097E-1,9.5125574E-1,2.431037E-1,-7.1546426E-3,-5.7907677E-1,1.4370233E-1,-4.7918788E-1,-7.489134E-1,-4.762154E-1,5.166069E-1,9.762337E-1,3.1728292E-1,-4.0877616E-1,3.6978036E-1,-2.0284657E-1,-3.4990156E-1,-7.865859E-1,4.453238E-1,1.2440939E0,5.864374E-1,-1.1761339E-1,5.698606E-1,-1.595392E-1,-2.6043636E-1,-8.850265E-1,6.221975E-1,1.7450025E-2,-5.6802845E-1,-3.570269E-1,-1.8533917E-1,-7.544287E-1,-3.2740593E-1,-7.9322815E-2,3.1653187E-1,8.395539E-1,7.948932E-1,1.2719957E0,7.719363E-1,3.295533E-2,-2.608197E-1,-6.0515E-1,8.0574304E-1,2.1662979E-1,-1.2652306E-1,-5.3365594E-1,-5.890437E-1,-1.9355232E-1,-8.090464E-1,-2.8979877E-1,-6.2120862E-2,4.722509E-2,1.0514194E-1,1.6498058E-1,9.121388E-2,3.792475E-2,2.9363383E-2,-1.9076837E-2,9.835816E-2,1.503744E-2,-4.4277865E-3,-3.5728153E-2,7.6354207E-3,-4.1161012E-2,-6.6202104E-2,-9.0755515E-2,1.8784476E-2,7.7308625E-2,-1.8426135E-2,1.3551156E-2,-4.414914E-2,-6.6094734E-2,-1.160543E-2,-3.8112693E-2,-0E0,-3.0276073E-2,-6.570735E-2,-7.947202E-2,-2.468959E-2,-5.6083094E-2,1.0828387E-1,2.1745786E-2,9.9347845E-2,2.8953765E-2,9.75144E-2,5.6039847E-2,1.3235216E-1,-6.252313E-2,-7.812933E-3,9.6553944E-2,1.2661228E-2,-9.531038E-2,-4.1511443E-2,-0E0,-4.4240545E-2,-9.080388E-2,1.0433328E-1,6.0811327E-3,1.7170113E-2,7.777059E-2,-1.6289486E-2,5.132987E-2,-5.4809697E-2,-0E0,-0E0,-6.5584294E-2,3.0650197E-2,-2.5549462E-2,-5.4045003E-2,-8.7884925E-2,-4.946742E-2,1.1241372E-2],"categories":[],"categories_nodes":[],"categories_segments":[],"categories_sizes":[],"default_left":[0,0,0,0,0,0,0,0,0,0,0,0,0,0,0,0,0,0,0,0,0,0,0,0,0,0,0,0,0,0,0,0,0,0,0,0,0,0,0,0,0,0,0,0,0,0,0,0,0,0,0,0,0,0,0,0,0,0,0,0,0,0,0,0,0,0,0,0,0,0,0,0,0,0,0,0,0,0,0,0,0,0,0,0,0,0,0,0,0,0,0,0,0,0,0,0,0,0,0,0,0,0,0,0,0,0,0,0,0,0,0,0,0,0,0,0,0,0,0,0,0,0,0,0,0],"id":6,"left_children":[1,3,5,7,9,11,13,15,17,19,21,23,25,27,29,31,33,35,37,39,41,43,45,47,49,51,53,55,57,59,61,63,65,67,69,71,73,75,77,79,81,83,85,87,89,91,-1,93,95,97,99,101,103,105,107,109,111,113,115,117,119,121,123,-1,-1,-1,-1,-1,-1,-1,-1,-1,-1,-1,-1,-1,-1,-1,-1,-1,-1,-1,-1,-1,-1,-1,-1,-1,-1,-1,-1,-1,-1,-1,-1,-1,-1,-1,-1,-1,-1,-1,-1,-1,-1,-1,-1,-1,-1,-1,-1,-1,-1,-1,-1,-1,-1,-1,-1,-1,-1,-1,-1,-1,-1],"loss_changes":[4.595889E2,2.3089027E2,1.984017E2,2.9979782E2,3.1841705E1,1.6655878E2,2.1476877E1,1.13191086E2,3.1852606E2,5.119075E1,4.1376038E0,6.7525085E1,4.670722E1,1.7977036E1,6.1245155E0,4.224234E1,1.2742988E2,4.0153006E2,1.20345E2,9.530545E0,8.180786E0,8.882904E-1,3.3078423E0,4.181134E1,3.305414E1,2.3809116E1,4.6948795E0,4.997881E0,4.38595E0,3.47192E0,2.3587418E-1,3.380083E0,1.23003845E1,3.5087997E1,1.5148289E1,1.653056E2,8.229169E1,3.10206E1,2.4124146E0,1.9214706E0,3.0445178E0,4.8889008E0,1.8341217E0,1.03239134E-1,7.3298645E-1,8.1437826E-1,0E0,3.038255E1,2.0664642E1,1.6164871E1,2.4456635E1,1.1849026E1,1.0658424E1,3.949174E0,3.0123634E0,3.365902E0,1.2840309E0,3.4694784E0,2.1510315E-1,1.4394617E0,1.9626548E0,3.0178833E-1,4.2344803E-1,0E0,0E0,0E0,0E0,0E0,0E0,0E0,0E0,0E0,0E0,0E0,0E0,0E0,0E0,0E0,0E0,0E0,0E0,0E0,0E0,0E0,0E0,0E0,0E0,0E0,0E0,0E0,0E0,0E0,0E0,0E0,0E0,0E0,0E0,0E0,0E0,0E0,0E0,0E0,0E0,0E0,0E0,0E0,0E0,0E0,0E0,0E0,0E0,0E0,0E0,0E0,0E0,0E0,0E0,0E0,0E0,0E0,0E0,0E0,0E0,0E0,0E0],"parents":[2147483647,0,0,1,1,2,2,3,3,4,4,5,5,6,6,7,7,8,8,9,9,10,10,11,11,12,12,13,13,14,14,15,15,16,16,17,17,18,18,19,19,20,20,21,21,22,22,23,23,24,24,25,25,26,26,27,27,28,28,29,29,30,30,31,31,32,32,33,33,34,34,35,35,36,36,37,37,38,38,39,39,40,40,41,41,42,42,43,43,44,44,45,45,47,47,48,48,49,49,50,50,51,51,52,52,53,53,54,54,55,55,56,56,57,57,58,58,59,59,60,60,61,61,62,62],"right_children":[2,4,6,8,10,12,14,16,18,20,22,24,26,28,30,32,34,36,38,40,42,44,46,48,50,52,54,56,58,60,62,64,66,68,70,72,74,76,78,80,82,84,86,88,90,92,-1,94,96,98,100,102,104,106,108,110,112,114,116,118,120,122,124,-1,-1,-1,-1,-1,-1,-1,-1,-1,-1,-1,-1,-1,-1,-1,-1,-1,-1,-1,-1,-1,-1,-1,-1,-1,-1,-1,-1,-1,-1,-1,-1,-1,-1,-1,-1,-1,-1,-1,-1,-1,-1,-1,-1,-1,-1,-1,-1,-1,-1,-1,-1,-1,-1,-1,-1,-1,-1,-1,-1,-1,-1],"split_conditions":[3.5484314E-1,1.070322E0,1.098404E0,-1.1306928E0,1.505593E0,1.0083256E0,1.505593E0,-1.4099121E0,-5.1631045E-1,-1.4099121E0,-8.76404E-1,6.473588E-1,-9.141387E-1,-1.3301352E0,1.7536505E0,9.860761E-1,9.205515E-1,6.194131E-1,-2.4317476E-1,1.1545681E0,-4.1567843E-2,-1.5559516E0,1.7536505E0,1.8978676E-1,-1.276202E-1,1.2077678E0,-7.409664E-1,1.2154124E0,-6.470454E-1,-9.3125063E-1,-3.8278437E-1,-9.7348577E-1,1.0047975E0,-1.2204419E0,-1.3849818E0,-6.8948275E-1,9.086044E-1,-9.3125063E-1,-3.478185E-1,-3.4146583E-1,-1.6136833E-1,-1.276202E-1,-7.840244E-1,-1.7691587E-1,-1.758936E0,-6.470454E-1,-7.9322815E-2,-1.2054838E0,9.205515E-1,-5.1631045E-1,1.9142162E0,4.330535E-1,1.6964014E0,8.787454E-1,1.3374053E0,-1.4348423E0,-1.3550655E0,1.0681368E0,9.833042E-1,-1.758936E0,-1.1314232E0,-1.0004894E0,3.4849024E-1,-6.2120862E-2,4.722509E-2,1.0514194E-1,1.6498058E-1,9.121388E-2,3.792475E-2,2.9363383E-2,-1.9076837E-2,9.835816E-2,1.503744E-2,-4.4277865E-3,-3.5728153E-2,7.6354207E-3,-4.1161012E-2,-6.6202104E-2,-9.0755515E-2,1.8784476E-2,7.7308625E-2,-1.8426135E-2,1.3551156E-2,-4.414914E-2,-6.6094734E-2,-1.160543E-2,-3.8112693E-2,-0E0,-3.0276073E-2,-6.570735E-2,-7.947202E-2,-2.468959E-2,-5.6083094E-2,1.0828387E-1,2.1745786E-2,9.9347845E-2,2.8953765E-2,9.75144E-2,5.6039847E-2,1.3235216E-1,-6.252313E-2,-7.812933E-3,9.6553944E-2,1.2661228E-2,-9.531038E-2,-4.1511443E-2,-0E0,-4.4240545E-2,-9.080388E-2,1.0433328E-1,6.0811327E-3,1.7170113E-2,7.777059E-2,-1.6289486E-2,5.132987E-2,-5.4809697E-2,-0E0,-0E0,-6.5584294E-2,3.0650197E-2,-2.5549462E-2,-5.4045003E-2,-8.7884925E-2,-4.946742E-2,1.1241372E-2],"split_indices":[2,6,6,7,6,7,6,7,6,7,7,2,6,7,6,6,6,7,7,6,2,1,6,1,1,7,6,6,7,7,7,2,6,7,7,6,7,7,6,2,2,1,4,3,7,7,0,7,6,6,3,2,7,2,7,7,7,2,1,7,4,1,1,0,0,0,0,0,0,0,0,0,0,0,0,0,0,0,0,0,0,0,0,0,0,0,0,0,0,0,0,0,0,0,0,0,0,0,0,0,0,0,0,0,0,0,0,0,0,0,0,0,0,0,0,0,0,0,0,0,0,0,0,0,0],"split_type":[0,0,0,0,0,0,0,0,0,0,0,0,0,0,0,0,0,0,0,0,0,0,0,0,0,0,0,0,0,0,0,0,0,0,0,0,0,0,0,0,0,0,0,0,0,0,0,0,0,0,0,0,0,0,0,0,0,0,0,0,0,0,0,0,0,0,0,0,0,0,0,0,0,0,0,0,0,0,0,0,0,0,0,0,0,0,0,0,0,0,0,0,0,0,0,0,0,0,0,0,0,0,0,0,0,0,0,0,0,0,0,0,0,0,0,0,0,0,0,0,0,0,0,0,0],"sum_hessian":[1.054E4,8.493E3,2.047E3,7.118E3,1.375E3,1.643E3,4.04E2,1.316E3,5.802E3,9.38E2,4.37E2,1.29E3,3.53E2,2.56E2,1.48E2,2.89E2,1.027E3,4.565E3,1.237E3,1.58E2,7.8E2,3.6E2,7.7E1,6.52E2,6.38E2,1.84E2,1.69E2,7.8E1,1.78E2,9.7E1,5.1E1,1.07E2,1.82E2,5.26E2,5.01E2,9.53E2,3.612E3,6.07E2,6.3E2,3.2E1,1.26E2,4.49E2,3.31E2,4E0,3.56E2,5.4E1,2.3E1,4.04E2,2.48E2,3.98E2,2.4E2,7E1,1.14E2,9.8E1,7.1E1,1.9E1,5.9E1,1.46E2,3.2E1,3.7E1,6E1,4.8E1,3E0,2E0,1.05E2,1.26E2,5.6E1,2.03E2,3.23E2,7.5E1,4.26E2,4.79E2,4.74E2,2.283E3,1.329E3,1.88E2,4.19E2,6.1E1,5.69E2,9E0,2.3E1,4.6E1,8E1,1.93E2,2.56E2,3.1E1,3E2,2E0,2E0,1.1E2,2.46E2,4.2E1,1.2E1,4.5E1,3.59E2,1.93E2,5.5E1,2.23E2,1.75E2,2.34E2,6E0,1.3E1,5.7E1,1.05E2,9E0,6.1E1,3.7E1,4.8E1,2.3E1,1.4E1,5E0,5.6E1,3E0,1.39E2,7E0,3.1E1,1E0,4E0,3.3E1,6E0,5.4E1,1.2E1,3.6E1,2E0,1E0],"tree_param":{"num_deleted":"0","num_feature":"8","num_nodes":"125","size_leaf_vector":"1"}},{"base_weights":[4.155004E-3,-1.6613367E-1,7.866712E-1,-3.907683E-1,5.980896E-2,6.032394E-1,1.3779794E0,-1.0788297E-1,-4.4551086E-1,6.1560947E-1,-6.695498E-2,9.780336E-1,4.1704923E-1,1.4859794E0,1.0955887E0,1.510689E-3,-4.5596582E-1,-3.2032314E-1,-5.61634E-1,7.268401E-1,5.079552E-2,-1.8990505E-1,6.922971E-2,1.3420911E0,8.646123E-1,2.8944847E-1,7.105518E-1,1.6858075E0,1.3777206E0,8.980927E-1,1.5370768E0,2.3892741E-1,-2.858945E-1,-3.8091287E-1,-7.21971E-1,-2.0669807E-1,-5.44752E-1,-4.804553E-1,-8.118064E-1,8.35362E-1,2.6987246E-1,2.2286165E-1,-1.9858786E-1,2.507239E-2,-2.5307998E-1,2.3617452E-1,-9.067456E-2,1.4521722E0,4.606546E-1,9.0999943E-1,1.3791852E-1,4.5348322E-1,1.4301366E-1,8.2483196E-1,4.2472827E-1,-2.9146617E-2,1.7079453E-1,4.020738E-1,1.3986591E0,1.4064497E0,7.0399475E-1,-4.0804237E-2,1.6033785E-1,5.093689E-2,6.4695873E-3,-9.805848E-2,-1.984857E-2,-1.6514031E-2,-4.453748E-2,-7.344077E-2,-9.33425E-3,-3.6236703E-2,5.7041375E-3,9.519975E-2,-5.5672314E-2,-3.4554604E-2,-5.8668118E-2,-5.736215E-2,-8.285191E-2,1.3899843E-1,7.5433545E-2,5.2670706E-2,-2.6566599E-2,1.11704245E-2,4.2173598E-2,-2.761812E-2,2.792956E-2,1.3107352E-2,-2.5573296E-2,8.7844115E-3,-2.8229678E-2,3.101698E-2,-8.107561E-3,9.686288E-3,-1.5213865E-2,1.0791349E-2,1.5214634E-1,1.2329712E-1,1.2884359E-2,7.8358345E-2,1.1743357E-1,9.9983506E-2,-3.63607E-3,2.7295694E-2,5.709514E-2,1.828902E-2,-1.6926708E-2,9.4535634E-2,6.0174562E-2,3.158829E-2,6.7367576E-2,7.292389E-2,-5.668759E-2,1.19022824E-1,1.5230773E-1,1.4753793E-1,3.9881688E-2,7.47646E-2,-1.5633753E-2],"categories":[],"categories_nodes":[],"categories_segments":[],"categories_sizes":[],"default_left":[0,0,0,0,0,0,0,0,0,0,0,0,0,0,0,0,0,0,0,0,0,0,0,0,0,0,0,0,0,0,0,0,0,0,0,0,0,0,0,0,0,0,0,0,0,0,0,0,0,0,0,0,0,0,0,0,0,0,0,0,0,0,0,0,0,0,0,0,0,0,0,0,0,0,0,0,0,0,0,0,0,0,0,0,0,0,0,0,0,0,0,0,0,0,0,0,0,0,0,0,0,0,0,0,0,0,0,0,0,0,0,0,0,0,0,0,0,0,0],"id":7,"left_children":[1,3,5,7,9,11,13,15,17,19,21,23,25,27,29,31,33,35,37,39,41,43,45,47,49,51,53,55,57,59,61,63,65,67,69,71,73,75,77,79,81,83,85,87,89,91,93,95,97,99,101,103,105,107,109,-1,-1,111,113,115,117,-1,-1,-1,-1,-1,-1,-1,-1,-1,-1,-1,-1,-1,-1,-1,-1,-1,-1,-1,-1,-1,-1,-1,-1,-1,-1,-1,-1,-1,-1,-1,-1,-1,-1,-1,-1,-1,-1,-1,-1,-1,-1,-1,-1,-1,-1,-1,-1,-1,-1,-1,-1,-1,-1,-1,-1,-1,-1],"loss_changes":[1.4136143E3,4.4223004E2,2.0461975E2,6.755432E1,3.061546E2,1.0056824E2,1.1776978E1,2.7081556E1,5.293799E1,5.0584778E1,5.9265194E1,1.8439056E1,3.6021957E1,4.3153687E0,9.536636E0,3.6978638E1,3.0086632E0,4.4795593E1,3.8006287E1,3.308841E1,5.7966833E0,2.5290154E1,4.4857185E1,1.000705E1,1.1940277E1,1.6161327E1,9.095261E0,5.366852E0,3.6292725E0,7.777893E0,5.6744385E0,1.390411E1,1.45643635E1,1.7431297E0,1.3012505E-1,4.8209946E1,1.1097763E1,2.0268799E1,1.2275696E0,2.3183899E1,1.81844E1,1.6680546E0,2.1162558E0,1.26119375E1,1.4367744E1,1.934452E1,9.910273E0,8.894287E0,3.2926419E0,1.0479492E1,3.5876272E0,6.524498E0,4.5152836E0,4.868988E0,2.0185642E0,0E0,0E0,2.3316636E0,3.335785E0,8.9110947E-1,2.7297325E0,0E0,0E0,0E0,0E0,0E0,0E0,0E0,0E0,0E0,0E0,0E0,0E0,0E0,0E0,0E0,0E0,0E0,0E0,0E0,0E0,0E0,0E0,0E0,0E0,0E0,0E0,0E0,0E0,0E0,0E0,0E0,0E0,0E0,0E0,0E0,0E0,0E0,0E0,0E0,0E0,0E0,0E0,0E0,0E0,0E0,0E0,0E0,0E0,0E0,0E0,0E0,0E0,0E0,0E0,0E0,0E0,0E0,0E0],"parents":[2147483647,0,0,1,1,2,2,3,3,4,4,5,5,6,6,7,7,8,8,9,9,10,10,11,11,12,12,13,13,14,14,15,15,16,16,17,17,18,18,19,19,20,20,21,21,22,22,23,23,24,24,25,25,26,26,27,27,28,28,29,29,30,30,31,31,32,32,33,33,34,34,35,35,36,36,37,37,38,38,39,39,40,40,41,41,42,42,43,43,44,44,45,45,46,46,47,47,48,48,49,49,50,50,51,51,52,52,53,53,54,54,57,57,58,58,59,59,60,60],"right_children":[2,4,6,8,10,12,14,16,18,20,22,24,26,28,30,32,34,36,38,40,42,44,46,48,50,52,54,56,58,60,62,64,66,68,70,72,74,76,78,80,82,84,86,88,90,92,94,96,98,100,102,104,106,108,110,-1,-1,112,114,116,118,-1,-1,-1,-1,-1,-1,-1,-1,-1,-1,-1,-1,-1,-1,-1,-1,-1,-1,-1,-1,-1,-1,-1,-1,-1,-1,-1,-1,-1,-1,-1,-1,-1,-1,-1,-1,-1,-1,-1,-1,-1,-1,-1,-1,-1,-1,-1,-1,-1,-1,-1,-1,-1,-1,-1,-1,-1,-1],"split_conditions":[7.3753756E-1,-3.6626455E-1,1.9681622E0,-7.938782E-2,-6.8753004E-2,-3.835898E-2,7.6400876E-1,1.0796827E0,-5.584334E-1,1.0188384E0,1.2826441E-1,-7.6668836E-2,1.3804724E0,-7.0352376E-1,3.2382777E0,6.692737E-1,1.5851586E0,8.9364624E-1,-1.3846757E-1,8.487717E-1,-1.225428E0,-4.3720562E-2,-1.4913207E-2,8.637299E-1,1.1030844E0,-5.065212E-3,8.288275E-1,-6.565634E-1,-8.436457E-2,-3.6234893E-2,-1.1894696E0,-3.478185E-1,-1.3631997E-1,-1.3351213E0,-6.5346634E-1,-7.456467E-1,-6.565634E-1,1.0562811E0,-8.4734774E-1,-1.4099121E0,-9.7030264E-1,1.32203E-1,3.9083686E-1,1.070322E0,-1.39994E0,1.0656418E0,-9.3125063E-1,-3.6118847E-1,-1.2979258E0,1.2978146E0,-1.4597727E0,9.358848E-1,9.9075645E-1,4.735071E-3,-9.577518E-2,-2.9146617E-2,1.7079453E-1,-2.018408E-1,2.392952E0,-9.281797E-1,6.489272E-2,-4.0804237E-2,1.6033785E-1,5.093689E-2,6.4695873E-3,-9.805848E-2,-1.984857E-2,-1.6514031E-2,-4.453748E-2,-7.344077E-2,-9.33425E-3,-3.6236703E-2,5.7041375E-3,9.519975E-2,-5.5672314E-2,-3.4554604E-2,-5.8668118E-2,-5.736215E-2,-8.285191E-2,1.3899843E-1,7.5433545E-2,5.2670706E-2,-2.6566599E-2,1.11704245E-2,4.2173598E-2,-2.761812E-2,2.792956E-2,1.3107352E-2,-2.5573296E-2,8.7844115E-3,-2.8229678E-2,3.101698E-2,-8.107561E-3,9.686288E-3,-1.5213865E-2,1.0791349E-2,1.5214634E-1,1.2329712E-1,1.2884359E-2,7.8358345E-2,1.1743357E-1,9.9983506E-2,-3.63607E-3,2.7295694E-2,5.709514E-2,1.828902E-2,-1.6926708E-2,9.4535634E-2,6.0174562E-2,3.158829E-2,6.7367576E-2,7.292389E-2,-5.668759E-2,1.19022824E-1,1.5230773E-1,1.4753793E-1,3.9881688E-2,7.47646E-2,-1.5633753E-2],"split_indices":[0,0,0,5,5,5,7,6,6,6,0,5,0,6,0,7,6,7,7,7,7,5,5,7,6,5,7,3,5,5,4,6,5,7,0,6,3,6,4,7,6,0,0,6,7,6,7,3,6,0,7,0,6,5,3,0,0,3,0,6,5,0,0,0,0,0,0,0,0,0,0,0,0,0,0,0,0,0,0,0,0,0,0,0,0,0,0,0,0,0,0,0,0,0,0,0,0,0,0,0,0,0,0,0,0,0,0,0,0,0,0,0,0,0,0,0,0,0,0],"split_type":[0,0,0,0,0,0,0,0,0,0,0,0,0,0,0,0,0,0,0,0,0,0,0,0,0,0,0,0,0,0,0,0,0,0,0,0,0,0,0,0,0,0,0,0,0,0,0,0,0,0,0,0,0,0,0,0,0,0,0,0,0,0,0,0,0,0,0,0,0,0,0,0,0,0,0,0,0,0,0,0,0,0,0,0,0,0,0,0,0,0,0,0,0,0,0,0,0,0,0,0,0,0,0,0,0,0,0,0,0,0,0,0,0,0,0,0,0,0,0],"sum_hessian":[1.0606E4,8.711E3,1.895E3,4.368E3,4.343E3,1.448E3,4.47E2,7.09E2,3.659E3,8.06E2,3.537E3,4.79E2,9.69E2,3.2E2,1.27E2,5.4E2,1.69E2,1.763E3,1.896E3,6.73E2,1.33E2,1.859E3,1.678E3,1.11E2,3.68E2,6.77E2,2.92E2,1.07E2,2.13E2,9E1,3.7E1,2.96E2,2.44E2,1.34E2,3.5E1,1.172E3,5.91E2,1.434E3,4.62E2,5.43E2,1.3E2,7.9E1,5.4E1,4.22E2,1.437E3,8.21E2,8.57E2,9.8E1,1.3E1,3.46E2,2.2E1,3.18E2,3.59E2,2.07E2,8.5E1,1E0,1.06E2,5E0,2.08E2,2.3E1,6.7E1,1E0,3.6E1,1.15E2,1.81E2,2.6E1,2.18E2,3.2E1,1.02E2,3.4E1,1E0,7.37E2,4.35E2,4E0,5.87E2,6.34E2,8E2,3.3E1,4.29E2,6.7E1,4.76E2,8.8E1,4.2E1,5.2E1,2.7E1,4.7E1,7E0,3.07E2,1.15E2,1.13E2,1.324E3,6.66E2,1.55E2,2.11E2,6.46E2,5E0,9.3E1,3E0,1E1,2.37E2,1.09E2,3E0,1.9E1,1.27E2,1.91E2,3.19E2,4E1,1.32E2,7.5E1,6.1E1,2.4E1,4E0,1E0,8.2E1,1.26E2,2.1E1,2E0,6.4E1,3E0],"tree_param":{"num_deleted":"0","num_feature":"8","num_nodes":"119","size_leaf_vector":"1"}},{"base_weights":[4.726592E-3,-2.0583741E-1,5.254452E-1,-4.1133115E-1,-4.895953E-2,3.185675E-1,9.916868E-1,-3.1390858E-1,-5.091575E-1,-8.38853E-2,4.5816493E-1,2.3730335E-1,7.182527E-1,7.589177E-1,1.2880626E0,2.3703625E-2,-3.951515E-1,-3.3459532E-1,-6.267015E-1,1.763474E-2,-2.0716453E-1,8.768726E-1,1.8318102E-1,2.6267687E-2,3.3203518E-1,7.715484E-1,3.4581445E-2,5.615757E-1,1.1008205E0,3.8026166E-1,1.3071917E0,-9.775635E-3,1.0691904E0,-3.6320972E-1,-7.5750923E-1,-4.2526003E-2,-4.9226624E-1,-5.5045575E-1,-7.585588E-1,3.9735422E-1,-8.631717E-2,-1.5989361E-2,-4.3909723E-1,9.730865E-1,-2.8918055E-1,5.48951E-1,-8.691414E-3,-6.591968E-2,2.483189E-1,3.6919066E-1,-1.7795484E-1,6.708777E-1,9.869081E-1,8.854411E-2,-2.4592325E-1,7.70185E-1,5.016132E-1,1.2476289E0,5.607719E-1,7.0418334E-1,-5.7694998E-2,1.1387017E0,1.425315E-1,-4.5655113E-2,6.1571836E-3,1.4594589E-1,5.4910142E-2,-1.9989556E-3,-3.8530614E-2,-7.328225E-3,-7.6900125E-2,4.395531E-2,-2.0262923E-2,-3.3794012E-2,-6.368411E-2,-6.3369095E-2,-5.114023E-2,-7.612256E-2,-3.1057978E-2,7.089514E-2,1.5391612E-2,-6.9956193E-3,-6.316651E-2,1.6269838E-2,-2.7542556E-2,-3.0714277E-2,-6.9118425E-2,6.1543018E-2,1.5006267E-1,1.910081E-3,-7.043075E-2,1.176229E-2,8.9260444E-2,6.979355E-3,-3.0027417E-2,1.8351639E-2,-1.3600597E-2,4.556801E-2,1.0934506E-2,2.6854206E-2,5.8604576E-2,-1.366176E-2,-7.754923E-2,8.0545805E-2,4.6796486E-2,3.856868E-2,1.0918949E-1,-4.4686947E-2,-1.3529476E-3,9.6431375E-2,3.5488516E-2,5.8354914E-2,2.5896115E-2,1.2870926E-1,6.931995E-3,6.287185E-2,-5.214221E-2,-3.876403E-2,9.2982106E-2,9.1171905E-2,1.409118E-1],"categories":[],"categories_nodes":[],"categories_segments":[],"categories_sizes":[],"default_left":[0,0,0,0,0,0,0,0,0,0,0,0,0,0,0,0,0,0,0,0,0,0,0,0,0,0,0,0,0,0,0,0,0,0,0,0,0,0,0,0,0,0,0,0,0,0,0,0,0,0,0,0,0,0,0,0,0,0,0,0,0,0,0,0,0,0,0,0,0,0,0,0,0,0,0,0,0,0,0,0,0,0,0,0,0,0,0,0,0,0,0,0,0,0,0,0,0,0,0,0,0,0,0,0,0,0,0,0,0,0,0,0,0,0,0,0,0,0,0,0,0],"id":8,"left_children":[1,3,5,7,9,11,13,15,17,19,21,23,25,27,29,31,33,35,37,39,41,43,45,47,49,51,53,55,57,59,61,63,65,67,69,71,73,75,77,79,81,83,85,87,89,91,93,95,97,99,101,103,105,-1,107,109,111,113,115,117,-1,119,-1,-1,-1,-1,-1,-1,-1,-1,-1,-1,-1,-1,-1,-1,-1,-1,-1,-1,-1,-1,-1,-1,-1,-1,-1,-1,-1,-1,-1,-1,-1,-1,-1,-1,-1,-1,-1,-1,-1,-1,-1,-1,-1,-1,-1,-1,-1,-1,-1,-1,-1,-1,-1,-1,-1,-1,-1,-1,-1],"loss_changes":[1.162921E3,2.4339081E2,2.9412665E2,3.0913086E1,7.5877975E1,6.849434E1,6.352771E1,4.505684E1,3.311917E1,5.019648E1,3.1511421E1,3.5160995E1,1.2900635E1,3.4840668E1,6.4713745E0,1.1282072E1,1.4925659E1,3.0227043E1,9.223602E0,8.686556E1,8.0246796E1,1.25785675E1,1.1849235E1,1.1231872E1,2.3107758E1,6.348343E0,6.7257957E0,3.7019424E0,1.4341995E1,3.5196178E0,6.12146E0,9.949261E0,1.0274963E0,9.188995E0,6.9291306E-1,1.7971695E1,9.214386E0,1.5768127E0,7.807922E-2,3.568383E1,1.5294669E1,4.6136E1,2.6897827E1,1.7921333E1,1.2337565E0,8.391172E0,2.5842252E0,6.7857604E0,4.5333347E0,2.4486206E1,1.8529885E0,5.749275E0,5.9325027E0,0E0,9.2858577E-1,5.411236E0,5.0333405E0,6.7501984E0,3.5004082E0,2.385507E0,0E0,8.9791565E0,0E0,0E0,0E0,0E0,0E0,0E0,0E0,0E0,0E0,0E0,0E0,0E0,0E0,0E0,0E0,0E0,0E0,0E0,0E0,0E0,0E0,0E0,0E0,0E0,0E0,0E0,0E0,0E0,0E0,0E0,0E0,0E0,0E0,0E0,0E0,0E0,0E0,0E0,0E0,0E0,0E0,0E0,0E0,0E0,0E0,0E0,0E0,0E0,0E0,0E0,0E0,0E0,0E0,0E0,0E0,0E0,0E0,0E0,0E0],"parents":[2147483647,0,0,1,1,2,2,3,3,4,4,5,5,6,6,7,7,8,8,9,9,10,10,11,11,12,12,13,13,14,14,15,15,16,16,17,17,18,18,19,19,20,20,21,21,22,22,23,23,24,24,25,25,26,26,27,27,28,28,29,29,30,30,31,31,32,32,33,33,34,34,35,35,36,36,37,37,38,38,39,39,40,40,41,41,42,42,43,43,44,44,45,45,46,46,47,47,48,48,49,49,50,50,51,51,52,52,54,54,55,55,56,56,57,57,58,58,59,59,61,61],"right_children":[2,4,6,8,10,12,14,16,18,20,22,24,26,28,30,32,34,36,38,40,42,44,46,48,50,52,54,56,58,60,62,64,66,68,70,72,74,76,78,80,82,84,86,88,90,92,94,96,98,100,102,104,106,-1,108,110,112,114,116,118,-1,120,-1,-1,-1,-1,-1,-1,-1,-1,-1,-1,-1,-1,-1,-1,-1,-1,-1,-1,-1,-1,-1,-1,-1,-1,-1,-1,-1,-1,-1,-1,-1,-1,-1,-1,-1,-1,-1,-1,-1,-1,-1,-1,-1,-1,-1,-1,-1,-1,-1,-1,-1,-1,-1,-1,-1,-1,-1,-1,-1],"split_conditions":[3.4268108E-1,-5.675526E-1,1.2978146E0,-1.4656423E-1,1.8561734E0,6.658972E-1,2.052343E0,6.393573E-1,-1.060888E0,-5.584334E-1,-1.3700236E0,-9.2113763E-1,1.070322E0,-1.276202E-1,-1.1613258E0,8.100063E-1,1.3374053E0,1.0141581E0,-1.3846757E-1,6.243992E-1,-9.5618093E-1,1.0188384E0,-7.1288437E-1,9.178723E-1,1.1828375E0,1.6974698E0,-1.4597727E0,-1.1655953E0,9.111908E-1,1.4594146E0,2.539835E0,-7.690484E-1,-6.8948275E-1,-8.4734774E-1,-1.2158543E0,-1.3650376E0,1.3979453E0,-1.0451194E0,8.129038E-1,-6.941631E-1,1.4121962E0,1.0750024E0,-1.9830024E-1,1.0001171E0,1.3979453E0,-7.456467E-1,1.0656418E0,-9.141387E-1,-7.409664E-1,-1.0007219E-1,1.6964014E0,6.0445493E-1,-2.869544E-1,8.854411E-2,-5.747057E-1,1.0562811E0,-5.1631045E-1,1.1778514E0,-8.863761E-1,-7.830894E-1,-5.7694998E-2,-4.8268467E-2,1.425315E-1,-4.5655113E-2,6.1571836E-3,1.4594589E-1,5.4910142E-2,-1.9989556E-3,-3.8530614E-2,-7.328225E-3,-7.6900125E-2,4.395531E-2,-2.0262923E-2,-3.3794012E-2,-6.368411E-2,-6.3369095E-2,-5.114023E-2,-7.612256E-2,-3.1057978E-2,7.089514E-2,1.5391612E-2,-6.9956193E-3,-6.316651E-2,1.6269838E-2,-2.7542556E-2,-3.0714277E-2,-6.9118425E-2,6.1543018E-2,1.5006267E-1,1.910081E-3,-7.043075E-2,1.176229E-2,8.9260444E-2,6.979355E-3,-3.0027417E-2,1.8351639E-2,-1.3600597E-2,4.556801E-2,1.0934506E-2,2.6854206E-2,5.8604576E-2,-1.366176E-2,-7.754923E-2,8.0545805E-2,4.6796486E-2,3.856868E-2,1.0918949E-1,-4.4686947E-2,-1.3529476E-3,9.6431375E-2,3.5488516E-2,5.8354914E-2,2.5896115E-2,1.2870926E-1,6.931995E-3,6.287185E-2,-5.214221E-2,-3.876403E-2,9.2982106E-2,9.1171905E-2,1.409118E-1],"split_indices":[0,0,0,6,1,1,0,7,7,6,7,1,6,1,4,3,7,6,7,7,7,6,6,0,7,1,7,7,6,1,0,6,6,4,4,7,6,0,6,6,7,6,7,6,6,6,6,6,6,3,7,7,3,0,4,6,6,7,7,6,0,1,0,0,0,0,0,0,0,0,0,0,0,0,0,0,0,0,0,0,0,0,0,0,0,0,0,0,0,0,0,0,0,0,0,0,0,0,0,0,0,0,0,0,0,0,0,0,0,0,0,0,0,0,0,0,0,0,0,0,0],"split_type":[0,0,0,0,0,0,0,0,0,0,0,0,0,0,0,0,0,0,0,0,0,0,0,0,0,0,0,0,0,0,0,0,0,0,0,0,0,0,0,0,0,0,0,0,0,0,0,0,0,0,0,0,0,0,0,0,0,0,0,0,0,0,0,0,0,0,0,0,0,0,0,0,0,0,0,0,0,0,0,0,0,0,0,0,0,0,0,0,0,0,0,0,0,0,0,0,0,0,0,0,0,0,0,0,0,0,0,0,0,0,0,0,0,0,0,0,0,0,0,0,0],"sum_hessian":[1.0604E4,7.551E3,3.053E3,3.268E3,4.283E3,2.116E3,9.37E2,1.64E3,1.628E3,4.008E3,2.75E2,1.76E3,3.56E2,5.27E2,4.1E2,3.18E2,1.322E3,6.57E2,9.71E2,2.198E3,1.81E3,1.08E2,1.67E2,5.46E2,1.214E3,3.3E2,2.6E1,3.36E2,1.91E2,9E0,4.01E2,3.09E2,9E0,1.217E3,1.05E2,2.31E2,4.26E2,6.19E2,3.52E2,4.72E2,1.726E3,9.93E2,8.17E2,1E2,8E0,5.7E1,1.1E2,3.86E2,1.6E2,1.132E3,8.2E1,2.28E2,1.02E2,6E0,2E1,7.2E1,2.64E2,1.49E2,4.2E1,7E0,2E0,1.7E2,2.31E2,4.2E1,2.67E2,4E0,5E0,7.4E1,1.143E3,2E0,1.03E2,5.7E1,1.74E2,2.08E2,2.18E2,1.92E2,4.27E2,3.49E2,3E0,2.06E2,2.66E2,1.677E3,4.9E1,5.88E2,4.05E2,5.38E2,2.79E2,6.1E1,3.9E1,5E0,3E0,2.6E1,3.1E1,8.7E1,2.3E1,8.4E1,3.02E2,6.3E1,9.7E1,7.75E2,3.57E2,7.8E1,4E0,1.35E2,9.3E1,1.6E1,8.6E1,1E1,1E1,4.8E1,2.4E1,1.96E2,6.8E1,1.44E2,5E0,4E1,2E0,1E0,6E0,9.5E1,7.5E1],"tree_param":{"num_deleted":"0","num_feature":"8","num_nodes":"121","size_leaf_vector":"1"}},{"base_weights":[-5.191838E-4,-1.5358385E-1,5.96131E-1,-3.716239E-1,-5.645897E-3,4.189416E-1,1.0154159E0,-1.4522943E-1,-4.259815E-1,2.6992208E-1,-1.3516223E-1,8.7103105E-1,2.5437456E-1,8.741483E-1,1.241621E0,-1.5171495E-2,-2.877607E-1,-5.398222E-1,-3.4077373E-1,3.6991093E-1,-1.3402635E-1,-2.3718952E-1,-3.1669367E-2,4.34398E-1,9.9447876E-1,4.071312E-1,9.1927424E-2,6.553162E-1,1.0397851E0,-7.9409525E-2,1.2533283E0,1.7952766E-1,-2.6259935E-1,-3.200719E-1,5.0134897E-2,-2.329817E-1,-5.6572413E-1,-1.2610754E-1,-3.9413184E-1,6.846031E-2,5.3033924E-1,6.8050295E-2,-2.2480617E-1,-1.6186808E-1,-3.270464E-1,3.718143E-1,-6.9507524E-2,1.5978175E-1,6.543877E-1,1.4927177E0,8.2020813E-1,3.5614592E-1,8.519805E-1,-3.546388E-2,2.2029227E-1,7.21867E-1,4.9638128E-1,1.123035E0,5.3859407E-1,-2.4804534E-2,7.893105E-3,1.2588396E0,3.6315835E-1,-1.2261626E-2,3.2998785E-2,-2.2381577E-3,-5.69112E-2,-5.093042E-2,-2.7360043E-2,1.8097667E-2,-4.4311438E-2,1.0923158E-2,-3.6890376E-2,-6.0439706E-2,-5.1778115E-2,-3.314255E-2,-5.2884925E-4,-3.016871E-2,-4.7322486E-2,-4.630513E-3,2.2880962E-2,9.189719E-2,3.6118645E-2,2.3275204E-2,-4.2477693E-2,-3.1634968E-2,-1.311612E-2,2.8897295E-2,-1.9377915E-2,-2.3036867E-2,-6.0204323E-2,1.2551597E-1,3.0339321E-2,-3.6339366E-3,-2.7903114E-2,2.1498386E-2,-5.9617348E-2,7.5011335E-2,4.5564002E-3,1.5286463E-1,6.2805966E-2,7.1335666E-2,1.14722684E-1,4.3223735E-2,1.2611883E-2,6.845844E-3,1.0117047E-1,-1.6177865E-2,4.556711E-3,3.990072E-2,1.7012438E-2,5.3399093E-2,8.4700726E-2,7.917937E-2,2.7241562E-2,1.2362019E-1,7.47881E-2,2.8441736E-2,7.190274E-2,5.8765557E-2,1.2673378E-1,-3.0626124E-2,9.009988E-2],"categories":[],"categories_nodes":[],"categories_segments":[],"categories_sizes":[],"default_left":[0,0,0,0,0,0,0,0,0,0,0,0,0,0,0,0,0,0,0,0,0,0,0,0,0,0,0,0,0,0,0,0,0,0,0,0,0,0,0,0,0,0,0,0,0,0,0,0,0,0,0,0,0,0,0,0,0,0,0,0,0,0,0,0,0,0,0,0,0,0,0,0,0,0,0,0,0,0,0,0,0,0,0,0,0,0,0,0,0,0,0,0,0,0,0,0,0,0,0,0,0,0,0,0,0,0,0,0,0,0,0,0,0,0,0,0,0,0,0,0,0,0,0],"id":9,"left_children":[1,3,5,7,9,11,13,15,17,19,21,23,25,27,29,31,33,35,37,39,41,43,45,47,49,51,53,55,57,59,61,63,65,67,69,71,73,75,77,79,81,83,85,87,89,91,93,95,97,99,101,103,105,107,109,111,113,115,117,-1,-1,119,121,-1,-1,-1,-1,-1,-1,-1,-1,-1,-1,-1,-1,-1,-1,-1,-1,-1,-1,-1,-1,-1,-1,-1,-1,-1,-1,-1,-1,-1,-1,-1,-1,-1,-1,-1,-1,-1,-1,-1,-1,-1,-1,-1,-1,-1,-1,-1,-1,-1,-1,-1,-1,-1,-1,-1,-1,-1,-1,-1,-1],"loss_changes":[9.635373E2,2.7081717E2,1.5945795E2,4.1648438E1,1.7861855E2,1.124548E2,1.912262E1,1.2181436E1,2.6267487E1,6.469769E1,3.591933E1,2.1201263E1,2.7531616E1,1.3539001E1,3.9750977E0,1.6723654E1,3.4712315E0,9.079254E0,1.7858429E1,6.195125E1,5.864519E0,1.1498772E1,2.5827507E1,5.3115826E0,2.5808472E1,1.2571846E1,8.873033E0,1.3602982E0,8.575165E0,1.1659558E-1,5.630188E-1,8.880564E0,1.1193471E1,2.3062153E0,1.8610327E0,4.392096E0,1.5717163E0,7.75376E0,8.955963E0,8.254788E0,5.4563034E1,8.115447E0,1.7997265E0,1.3498156E1,2.0515198E1,8.227058E0,1.0716167E1,1.8427216E0,2.8002586E0,1.3095093E0,7.2070312E0,8.921234E0,7.081276E0,2.8030248E0,2.2959585E0,2.2309113E0,3.316804E0,6.985962E0,1.2544565E0,0E0,0E0,4.3295288E-1,1.4155376E0,0E0,0E0,0E0,0E0,0E0,0E0,0E0,0E0,0E0,0E0,0E0,0E0,0E0,0E0,0E0,0E0,0E0,0E0,0E0,0E0,0E0,0E0,0E0,0E0,0E0,0E0,0E0,0E0,0E0,0E0,0E0,0E0,0E0,0E0,0E0,0E0,0E0,0E0,0E0,0E0,0E0,0E0,0E0,0E0,0E0,0E0,0E0,0E0,0E0,0E0,0E0,0E0,0E0,0E0,0E0,0E0,0E0,0E0,0E0,0E0],"parents":[2147483647,0,0,1,1,2,2,3,3,4,4,5,5,6,6,7,7,8,8,9,9,10,10,11,11,12,12,13,13,14,14,15,15,16,16,17,17,18,18,19,19,20,20,21,21,22,22,23,23,24,24,25,25,26,26,27,27,28,28,29,29,30,30,31,31,32,32,33,33,34,34,35,35,36,36,37,37,38,38,39,39,40,40,41,41,42,42,43,43,44,44,45,45,46,46,47,47,48,48,49,49,50,50,51,51,52,52,53,53,54,54,55,55,56,56,57,57,58,58,61,61,62,62],"right_children":[2,4,6,8,10,12,14,16,18,20,22,24,26,28,30,32,34,36,38,40,42,44,46,48,50,52,54,56,58,60,62,64,66,68,70,72,74,76,78,80,82,84,86,88,90,92,94,96,98,100,102,104,106,108,110,112,114,116,118,-1,-1,120,122,-1,-1,-1,-1,-1,-1,-1,-1,-1,-1,-1,-1,-1,-1,-1,-1,-1,-1,-1,-1,-1,-1,-1,-1,-1,-1,-1,-1,-1,-1,-1,-1,-1,-1,-1,-1,-1,-1,-1,-1,-1,-1,-1,-1,-1,-1,-1,-1,-1,-1,-1,-1,-1,-1,-1,-1,-1,-1,-1,-1],"split_conditions":[6.330862E-1,-5.500653E-1,1.5926836E0,-7.4113387E-1,-5.0711464E-2,-4.852632E-2,2.539835E0,6.543155E-1,-9.255964E-1,1.0562811E0,-2.1244347E-2,-8.417859E-1,-5.065212E-3,-5.243789E-1,-2.6252407E-1,-1.4656423E-1,-7.1288437E-1,-9.3090944E-2,-6.9286324E-2,-2.863237E-1,-1.3849818E0,-5.584334E-1,-1.3700236E0,9.178723E-1,-8.436457E-2,9.039524E-1,9.6208954E-1,9.335347E-1,7.6400876E-1,3.4508038E0,1.02669954E-1,-7.456467E-1,-1.140665E0,-1.2388453E0,-6.941631E-1,-1.1007766E0,-1.1019926E0,-5.243789E-1,-1.4656423E-1,-2.1244347E-2,-9.3090944E-2,1.4541093E0,-1.3430806E-1,5.645665E-1,-5.1242185E-1,9.205515E-1,1.0796827E0,1.2576284E0,1.0469204E0,1.0562811E0,1.2274978E0,9.205515E-1,-7.6436806E-1,-8.417859E-1,3.9960616E-3,1.9006286E0,-9.7030264E-1,9.111908E-1,9.0968835E-1,-2.4804534E-2,7.893105E-3,-1.9527103E0,8.246007E-1,-1.2261626E-2,3.2998785E-2,-2.2381577E-3,-5.69112E-2,-5.093042E-2,-2.7360043E-2,1.8097667E-2,-4.4311438E-2,1.0923158E-2,-3.6890376E-2,-6.0439706E-2,-5.1778115E-2,-3.314255E-2,-5.2884925E-4,-3.016871E-2,-4.7322486E-2,-4.630513E-3,2.2880962E-2,9.189719E-2,3.6118645E-2,2.3275204E-2,-4.2477693E-2,-3.1634968E-2,-1.311612E-2,2.8897295E-2,-1.9377915E-2,-2.3036867E-2,-6.0204323E-2,1.2551597E-1,3.0339321E-2,-3.6339366E-3,-2.7903114E-2,2.1498386E-2,-5.9617348E-2,7.5011335E-2,4.5564002E-3,1.5286463E-1,6.2805966E-2,7.1335666E-2,1.14722684E-1,4.3223735E-2,1.2611883E-2,6.845844E-3,1.0117047E-1,-1.6177865E-2,4.556711E-3,3.990072E-2,1.7012438E-2,5.3399093E-2,8.4700726E-2,7.917937E-2,2.7241562E-2,1.2362019E-1,7.47881E-2,2.8441736E-2,7.190274E-2,5.8765557E-2,1.2673378E-1,-3.0626124E-2,9.009988E-2],"split_indices":[0,0,0,2,5,5,0,7,0,6,0,1,5,1,2,6,6,5,5,1,7,6,7,0,5,1,0,7,7,0,5,6,7,0,6,7,0,1,6,0,5,6,0,7,7,6,6,7,6,6,0,6,6,1,5,0,6,6,2,0,0,1,1,0,0,0,0,0,0,0,0,0,0,0,0,0,0,0,0,0,0,0,0,0,0,0,0,0,0,0,0,0,0,0,0,0,0,0,0,0,0,0,0,0,0,0,0,0,0,0,0,0,0,0,0,0,0,0,0,0,0,0,0],"split_type":[0,0,0,0,0,0,0,0,0,0,0,0,0,0,0,0,0,0,0,0,0,0,0,0,0,0,0,0,0,0,0,0,0,0,0,0,0,0,0,0,0,0,0,0,0,0,0,0,0,0,0,0,0,0,0,0,0,0,0,0,0,0,0,0,0,0,0,0,0,0,0,0,0,0,0,0,0,0,0,0,0,0,0,0,0,0,0,0,0,0,0,0,0,0,0,0,0,0,0,0,0,0,0,0,0,0,0,0,0,0,0,0,0,0,0,0,0,0,0,0,0,0,0],"sum_hessian":[1.0549E4,8.396E3,2.153E3,3.393E3,5.003E3,1.515E3,6.38E2,6.58E2,2.735E3,1.599E3,3.404E3,4.03E2,1.112E3,3.96E2,2.42E2,3.45E2,3.13E2,1.168E3,1.567E3,1.282E3,3.17E2,1.713E3,1.691E3,9E1,3.13E2,5.72E2,5.4E2,1.73E2,2.23E2,2E0,2.4E2,1.93E2,1.52E2,2.86E2,2.7E1,9.2E1,1.076E3,3.13E2,1.254E3,4.46E2,8.36E2,9.8E1,2.19E2,9.34E2,7.79E2,1.44E2,1.547E3,4.1E1,4.9E1,7.9E1,2.34E2,5.15E2,5.7E1,2.71E2,2.69E2,1.19E2,5.4E1,1.9E2,3.3E1,1E0,1E0,2.38E2,2E0,6.4E1,1.29E2,8.6E1,6.6E1,5.4E1,2.32E2,2.2E1,5E0,2.6E1,6.6E1,5.88E2,4.88E2,1.15E2,1.98E2,5.81E2,6.73E2,2.6E2,1.86E2,2.52E2,5.84E2,7.4E1,2.4E1,1.09E2,1.1E2,6.1E1,8.73E2,5.78E2,2.01E2,9E0,1.35E2,1.337E3,2.1E2,3.9E1,2E0,4.2E1,7E0,7.5E1,4E0,1.79E2,5.5E1,3.86E2,1.29E2,1E1,4.7E1,1.06E2,1.65E2,5.7E1,2.12E2,5E1,6.9E1,2.2E1,3.2E1,1.44E2,4.6E1,1.5E1,1.8E1,4E0,2.34E2,1E0,1E0],"tree_param":{"num_deleted":"0","num_feature":"8","num_nodes":"123","size_leaf_vector":"1"}},{"base_weights":[-2.2176434E-3,-1.7184107E-1,4.2051405E-1,-3.533388E-1,-5.398315E-2,2.534465E-1,7.75968E-1,-1.8154643E-1,-3.970424E-1,2.9357013E-1,-1.4311206E-1,5.119872E-1,7.0476346E-2,5.7989556E-1,1.0133929E0,-8.288661E-2,-3.448792E-1,-3.087244E-1,-4.9137038E-1,-4.5534216E-2,4.683299E-1,-4.143272E-2,-2.1900956E-1,2.1421619E-1,6.577094E-1,4.3877885E-2,4.8629558E-1,4.3227974E-1,8.948042E-1,1.0870444E0,8.012535E-1,4.2880833E-1,-1.6274457E-1,-2.7513787E-1,-6.1705798E-2,8.19129E-2,-3.5189915E-1,-4.3415117E-1,-6.039514E-1,-2.282687E-1,1.4871247E-1,2.1796545E-1,7.1282285E-1,-8.197997E-2,3.319102E-1,8.9645386E-2,-2.3955715E-1,-1.3796726E-1,3.2776755E-1,1.2361095E0,5.3329813E-1,-1.7781207E-2,2.0002526E-1,-4.934615E-2,6.068496E-1,6.6835165E-1,3.8299698E-1,1.0167328E0,4.8988557E-1,1.2664138E0,9.989011E-1,6.165866E-1,1.1474782E0,8.0718875E-2,8.559622E-3,-9.104032E-3,-5.8585417E-2,-4.660809E-2,-2.0828737E-2,8.009605E-2,-7.453225E-3,-2.7908763E-2,-4.9550276E-2,-3.3151593E-2,-4.9861312E-2,-6.272302E-2,-3.6849584E-2,-4.9374767E-2,-1.3784203E-2,-1.3449286E-4,5.1443696E-2,4.6750534E-2,6.814509E-3,8.935689E-2,6.712188E-3,5.0436133E-3,-1.910013E-2,7.525547E-2,9.810504E-3,2.7530018E-2,-3.0351942E-2,-1.8652214E-2,-3.3135004E-2,6.5227605E-2,-2.3932178E-2,6.554816E-2,2.6129965E-2,1.4491253E-1,1.01798E-1,6.365022E-2,2.7366687E-2,1.310078E-2,-7.555821E-3,3.0562973E-2,1.0021258E-2,5.513083E-2,-2.0373091E-2,7.889342E-2,2.0733787E-2,3.6043525E-2,8.839343E-2,4.466243E-2,1.98803E-2,1.04655586E-1,5.377348E-3,1.0273459E-1,3.2543015E-2,4.556212E-2,1.2771812E-1,1.9273434E-2,1.0202358E-1,1.0497471E-1,4.8625894E-2,-4.316252E-2,1.2030237E-1],"categories":[],"categories_nodes":[],"categories_segments":[],"categories_sizes":[],"default_left":[0,0,0,0,0,0,0,0,0,0,0,0,0,0,0,0,0,0,0,0,0,0,0,0,0,0,0,0,0,0,0,0,0,0,0,0,0,0,0,0,0,0,0,0,0,0,0,0,0,0,0,0,0,0,0,0,0,0,0,0,0,0,0,0,0,0,0,0,0,0,0,0,0,0,0,0,0,0,0,0,0,0,0,0,0,0,0,0,0,0,0,0,0,0,0,0,0,0,0,0,0,0,0,0,0,0,0,0,0,0,0,0,0,0,0,0,0,0,0,0,0,0,0,0,0],"id":10,"left_children":[1,3,5,7,9,11,13,15,17,19,21,23,25,27,29,31,33,35,37,39,41,43,45,47,49,51,53,55,57,59,61,63,65,67,-1,69,71,73,75,77,79,81,83,85,87,89,91,93,95,97,99,101,103,105,107,109,111,113,115,117,119,121,123,-1,-1,-1,-1,-1,-1,-1,-1,-1,-1,-1,-1,-1,-1,-1,-1,-1,-1,-1,-1,-1,-1,-1,-1,-1,-1,-1,-1,-1,-1,-1,-1,-1,-1,-1,-1,-1,-1,-1,-1,-1,-1,-1,-1,-1,-1,-1,-1,-1,-1,-1,-1,-1,-1,-1,-1,-1,-1,-1,-1,-1,-1],"loss_changes":[7.5474457E2,1.6062898E2,1.7868622E2,2.2071045E1,1.4115837E2,9.697601E1,4.408307E1,9.629496E0,1.9395782E1,5.517708E1,2.79552E1,3.6655014E1,1.3231008E1,2.4117783E1,5.721161E0,1.54485E1,4.030962E0,2.0631935E1,6.9582825E0,1.1293997E1,3.7335922E1,2.3496435E1,1.3202698E1,1.1301647E1,4.018074E1,1.092057E1,4.7350063E0,3.8621292E0,7.6456146E0,3.5519104E0,6.5326767E0,6.464732E0,9.799748E0,2.1586475E0,0E0,1.3856304E1,1.1275391E1,4.7666626E0,1.752121E0,3.805828E0,8.503469E0,1.1317356E1,3.602339E1,2.0248777E1,1.4790129E1,9.5698185E0,9.364861E0,5.641344E0,4.376711E0,2.9246063E0,1.2355225E1,6.9847784E0,3.3123407E0,1.3758073E0,4.0287495E0,3.6062279E0,3.3977585E0,3.5096588E0,3.1543121E0,1.265564E-1,3.4487E0,3.7392693E0,4.017166E0,0E0,0E0,0E0,0E0,0E0,0E0,0E0,0E0,0E0,0E0,0E0,0E0,0E0,0E0,0E0,0E0,0E0,0E0,0E0,0E0,0E0,0E0,0E0,0E0,0E0,0E0,0E0,0E0,0E0,0E0,0E0,0E0,0E0,0E0,0E0,0E0,0E0,0E0,0E0,0E0,0E0,0E0,0E0,0E0,0E0,0E0,0E0,0E0,0E0,0E0,0E0,0E0,0E0,0E0,0E0,0E0,0E0,0E0,0E0,0E0,0E0,0E0],"parents":[2147483647,0,0,1,1,2,2,3,3,4,4,5,5,6,6,7,7,8,8,9,9,10,10,11,11,12,12,13,13,14,14,15,15,16,16,17,17,18,18,19,19,20,20,21,21,22,22,23,23,24,24,25,25,26,26,27,27,28,28,29,29,30,30,31,31,32,32,33,33,35,35,36,36,37,37,38,38,39,39,40,40,41,41,42,42,43,43,44,44,45,45,46,46,47,47,48,48,49,49,50,50,51,51,52,52,53,53,54,54,55,55,56,56,57,57,58,58,59,59,60,60,61,61,62,62],"right_children":[2,4,6,8,10,12,14,16,18,20,22,24,26,28,30,32,34,36,38,40,42,44,46,48,50,52,54,56,58,60,62,64,66,68,-1,70,72,74,76,78,80,82,84,86,88,90,92,94,96,98,100,102,104,106,108,110,112,114,116,118,120,122,124,-1,-1,-1,-1,-1,-1,-1,-1,-1,-1,-1,-1,-1,-1,-1,-1,-1,-1,-1,-1,-1,-1,-1,-1,-1,-1,-1,-1,-1,-1,-1,-1,-1,-1,-1,-1,-1,-1,-1,-1,-1,-1,-1,-1,-1,-1,-1,-1,-1,-1,-1,-1,-1,-1,-1,-1,-1,-1,-1,-1,-1,-1],"split_conditions":[3.4268108E-1,-6.385522E-1,1.2648356E0,-6.8753004E-2,-6.9286324E-2,-3.1303015E-2,1.9681622E0,1.0141581E0,-1.4656423E-1,-3.6567545E-1,-2.4795631E-2,-5.243789E-1,8.246007E-1,1.1043502E-1,7.6400876E-1,-1.1007766E0,1.6881258E0,6.09441E-1,-5.1242185E-1,-1.8587728E-1,-2.4170019E-1,1.4594146E0,-1.39994E0,-5.791032E-1,-8.021102E-2,8.962889E-1,-7.690484E-1,-1.1955117E0,9.205515E-1,-7.0352376E-1,3.2382777E0,8.690678E-1,-1.1380191E-1,-1.1475751E0,-6.1705798E-2,-6.8948275E-1,9.833953E-1,1.0562811E0,8.8778913E-1,-1.1230353E-1,-7.624341E-1,-9.9448025E-2,1.0188384E0,-4.6950713E-1,-1.3550655E0,1.2902976E0,-5.1631045E-1,-1.2603304E0,-9.058979E-2,-7.316057E-1,9.205515E-1,-9.3125063E-1,7.1702205E-4,5.994689E-1,9.299121E-1,-2.7040198E-1,-3.478185E-1,1.1778514E0,-1.39994E0,-1.2158543E0,-8.436457E-2,-3.9149042E-2,-1.1894696E0,8.0718875E-2,8.559622E-3,-9.104032E-3,-5.8585417E-2,-4.660809E-2,-2.0828737E-2,8.009605E-2,-7.453225E-3,-2.7908763E-2,-4.9550276E-2,-3.3151593E-2,-4.9861312E-2,-6.272302E-2,-3.6849584E-2,-4.9374767E-2,-1.3784203E-2,-1.3449286E-4,5.1443696E-2,4.6750534E-2,6.814509E-3,8.935689E-2,6.712188E-3,5.0436133E-3,-1.910013E-2,7.525547E-2,9.810504E-3,2.7530018E-2,-3.0351942E-2,-1.8652214E-2,-3.3135004E-2,6.5227605E-2,-2.3932178E-2,6.554816E-2,2.6129965E-2,1.4491253E-1,1.01798E-1,6.365022E-2,2.7366687E-2,1.310078E-2,-7.555821E-3,3.0562973E-2,1.0021258E-2,5.513083E-2,-2.0373091E-2,7.889342E-2,2.0733787E-2,3.6043525E-2,8.839343E-2,4.466243E-2,1.98803E-2,1.04655586E-1,5.377348E-3,1.0273459E-1,3.2543015E-2,4.556212E-2,1.2771812E-1,1.9273434E-2,1.0202358E-1,1.0497471E-1,4.8625894E-2,-4.316252E-2,1.2030237E-1],"split_indices":[0,0,0,5,5,5,0,6,6,1,5,1,1,1,7,7,6,7,7,0,0,1,7,4,5,0,6,7,6,6,0,6,6,0,0,6,7,6,6,5,1,5,6,6,7,6,6,7,5,6,6,7,5,7,6,4,6,7,7,4,5,5,4,0,0,0,0,0,0,0,0,0,0,0,0,0,0,0,0,0,0,0,0,0,0,0,0,0,0,0,0,0,0,0,0,0,0,0,0,0,0,0,0,0,0,0,0,0,0,0,0,0,0,0,0,0,0,0,0,0,0,0,0,0,0],"split_type":[0,0,0,0,0,0,0,0,0,0,0,0,0,0,0,0,0,0,0,0,0,0,0,0,0,0,0,0,0,0,0,0,0,0,0,0,0,0,0,0,0,0,0,0,0,0,0,0,0,0,0,0,0,0,0,0,0,0,0,0,0,0,0,0,0,0,0,0,0,0,0,0,0,0,0,0,0,0,0,0,0,0,0,0,0,0,0,0,0,0,0,0,0,0,0,0,0,0,0,0,0,0,0,0,0,0,0,0,0,0,0,0,0,0,0,0,0,0,0,0,0,0,0,0,0],"sum_hessian":[1.0524E4,7.511E3,3.013E3,2.956E3,4.555E3,2.051E3,9.62E2,6.01E2,2.355E3,9.29E2,3.626E3,8.49E2,1.202E3,5.29E2,4.33E2,3.76E2,2.25E2,1.219E3,1.136E3,3.16E2,6.13E2,1.551E3,2.075E3,2.8E2,5.69E2,1.131E3,7.1E1,3.62E2,1.67E2,3.18E2,1.15E2,5E1,3.26E2,1.81E2,4.4E1,1.21E2,1.098E3,7.57E2,3.79E2,1.63E2,1.53E2,3.04E2,3.09E2,1.4E3,1.51E2,1.29E2,1.946E3,6.8E1,2.12E2,9.9E1,4.7E2,8.11E2,3.2E2,1.3E1,5.8E1,6E1,3.02E2,1.27E2,4E1,1E2,2.18E2,7.7E1,3.8E1,2.3E1,2.7E1,2.8E2,4.6E1,4.5E1,1.36E2,2.1E1,1E2,7.31E2,3.67E2,2.95E2,4.62E2,3.43E2,3.6E1,4E1,1.23E2,1.09E2,4.4E1,1.13E2,1.91E2,2.41E2,6.8E1,6.32E2,7.68E2,5.3E1,9.8E1,8.8E1,4.1E1,1.236E3,7.1E2,7E0,6.1E1,3.4E1,1.78E2,4.7E1,5.2E1,3.35E2,1.35E2,2.26E2,5.85E2,1.54E2,1.66E2,2E0,1.1E1,3.9E1,1.9E1,2.6E1,3.4E1,2.23E2,7.9E1,1.23E2,4E0,8E0,3.2E1,2E0,9.8E1,6E0,2.12E2,1.6E1,6.1E1,1E0,3.7E1],"tree_param":{"num_deleted":"0","num_feature":"8","num_nodes":"125","size_leaf_vector":"1"}},{"base_weights":[2.6901129E-5,8.109365E-2,-2.2497384E-1,1.6952549E-1,-2.4014263E-1,-2.7049577E-1,1.4301905E-1,2.441389E-1,-1.11061454E-1,-1.5023145E-1,-4.182306E-1,-2.380791E-1,-4.7138178E-1,8.003054E-2,8.168553E-1,1.4320977E-1,4.6685836E-1,8.155022E-2,-4.4542152E-1,2.2123194E-1,-2.4971111E-1,-4.889797E-1,-2.2664163E-1,-2.6869693E-1,-1.851068E-2,-4.3707848E-1,-6.922822E-2,1.8912306E-1,-2.3352371E-1,9.833955E-1,-3.1996438E-1,3.716319E-1,2.8680198E-2,6.570808E-1,2.966261E-1,4.144285E-1,-1.8338293E-1,-3.7348711E-1,-6.1648667E-1,6.025557E-1,8.6477764E-2,-2.8683382E-1,-8.09373E-2,-4.3159446E-1,-5.5563897E-1,-1.3172066E-1,-4.8900034E-2,1.03351824E-1,-2.8323805E-1,1.0671035E-1,-1.3876995E-1,-3.5001355E-1,-5.5536926E-1,2.519396E-1,-1.9284081E-1,-2.9356432E-1,8.781302E-2,1.0835993E0,2.1152756E-1,-0E0,-4.1004773E-2,-2.6095968E-3,4.6168186E-2,4.81193E-2,-5.837997E-4,1.0752274E-1,5.1334452E-2,6.3548736E-2,-4.46109E-2,3.3391923E-2,9.8093994E-2,-1.4574456E-2,-6.8539485E-2,-4.220748E-2,-5.308374E-3,-3.9443906E-2,-6.550008E-2,-3.981405E-2,7.007989E-2,1.1377005E-2,-4.1844323E-2,-2.2708368E-2,-3.61385E-2,1.5714345E-2,-1.4482557E-2,-4.3814998E-2,-3.683478E-3,-4.5605183E-2,-6.016911E-2,-1.8020935E-2,1.9365204E-2,1.8996712E-2,-3.300039E-2,-2.2593314E-2,-3.977823E-2,7.147609E-3,1.1649121E-1,1.2998432E-2,-3.8426656E-2,-4.5091543E-2,-2.3550786E-2,1.071111E-2,-5.6782514E-2,3.134723E-2,-1.8004479E-2,2.8429767E-2,-2.4064707E-2,-1.67056E-2,-4.1145794E-2,4.3709166E-2,-6.950172E-2,4.8365485E-2,1.197107E-1,-0E0,3.0447943E-2],"categories":[],"categories_nodes":[],"categories_segments":[],"categories_sizes":[],"default_left":[0,0,0,0,0,0,0,0,0,0,0,0,0,0,0,0,0,0,0,0,0,0,0,0,0,0,0,0,0,0,0,0,0,0,0,0,0,0,0,0,0,0,0,0,0,0,0,0,0,0,0,0,0,0,0,0,0,0,0,0,0,0,0,0,0,0,0,0,0,0,0,0,0,0,0,0,0,0,0,0,0,0,0,0,0,0,0,0,0,0,0,0,0,0,0,0,0,0,0,0,0,0,0,0,0,0,0,0,0,0,0,0,0,0,0],"id":11,"left_children":[1,3,5,7,9,11,13,15,17,19,21,23,25,27,29,31,33,35,37,39,41,43,45,47,49,51,-1,53,55,57,59,61,63,65,67,69,71,73,75,77,79,81,83,85,87,89,-1,91,93,95,97,99,101,103,105,107,109,111,113,-1,-1,-1,-1,-1,-1,-1,-1,-1,-1,-1,-1,-1,-1,-1,-1,-1,-1,-1,-1,-1,-1,-1,-1,-1,-1,-1,-1,-1,-1,-1,-1,-1,-1,-1,-1,-1,-1,-1,-1,-1,-1,-1,-1,-1,-1,-1,-1,-1,-1,-1,-1,-1,-1,-1,-1],"loss_changes":[1.9179828E2,2.1965213E2,4.6705032E1,1.2697266E2,2.6604515E1,1.5960205E1,1.2875229E1,1.0754599E2,8.2120415E1,4.1112938E1,7.3947144E0,1.4332741E1,2.1836014E0,9.685937E0,5.3034763E0,8.622857E1,4.805603E1,7.144521E1,5.405098E0,1.1954456E1,5.434704E0,1.2183533E0,3.6837287E0,1.0191025E1,3.9785287E0,2.8047676E0,0E0,5.0931597E0,1.454761E0,1.4201908E0,9.4908535E-2,3.9488358E1,3.438294E1,4.1601593E1,1.9913293E2,1.5914749E1,8.338597E0,5.0829735E0,7.9977036E-1,6.3062935E0,2.4287171E0,3.0573845E0,2.4552171E0,5.16037E-1,4.6368027E-1,1.8321201E0,0E0,2.7136874E0,1.1695679E1,4.6028576E0,8.982443E0,1.8586388E0,1.1383629E0,4.880974E0,7.4835634E-1,7.981124E-1,3.559104E0,6.149025E-1,9.914747E-2,0E0,0E0,0E0,0E0,0E0,0E0,0E0,0E0,0E0,0E0,0E0,0E0,0E0,0E0,0E0,0E0,0E0,0E0,0E0,0E0,0E0,0E0,0E0,0E0,0E0,0E0,0E0,0E0,0E0,0E0,0E0,0E0,0E0,0E0,0E0,0E0,0E0,0E0,0E0,0E0,0E0,0E0,0E0,0E0,0E0,0E0,0E0,0E0,0E0,0E0,0E0,0E0,0E0,0E0,0E0,0E0],"parents":[2147483647,0,0,1,1,2,2,3,3,4,4,5,5,6,6,7,7,8,8,9,9,10,10,11,11,12,12,13,13,14,14,15,15,16,16,17,17,18,18,19,19,20,20,21,21,22,22,23,23,24,24,25,25,27,27,28,28,29,29,30,30,31,31,32,32,33,33,34,34,35,35,36,36,37,37,38,38,39,39,40,40,41,41,42,42,43,43,44,44,45,45,47,47,48,48,49,49,50,50,51,51,52,52,53,53,54,54,55,55,56,56,57,57,58,58],"right_children":[2,4,6,8,10,12,14,16,18,20,22,24,26,28,30,32,34,36,38,40,42,44,46,48,50,52,-1,54,56,58,60,62,64,66,68,70,72,74,76,78,80,82,84,86,88,90,-1,92,94,96,98,100,102,104,106,108,110,112,114,-1,-1,-1,-1,-1,-1,-1,-1,-1,-1,-1,-1,-1,-1,-1,-1,-1,-1,-1,-1,-1,-1,-1,-1,-1,-1,-1,-1,-1,-1,-1,-1,-1,-1,-1,-1,-1,-1,-1,-1,-1,-1,-1,-1,-1,-1,-1,-1,-1,-1,-1,-1,-1,-1,-1,-1],"split_conditions":[1.2549828E-2,1.070322E0,4.5638013E-1,9.335347E-1,1.505593E0,1.0083256E0,1.4652414E0,1.4803675E-1,-9.18819E-1,-1.39994E0,-8.76404E-1,1.703499E-1,1.4121962E0,2.2677965E-2,1.9142162E0,-6.8753004E-2,-5.1631045E-1,1.2077678E0,3.1083276E-2,1.1732894E0,4.4496974E-1,-2.863237E-1,1.7536505E0,-1.3849818E0,-4.6950713E-1,-8.018107E-1,-6.922822E-2,9.833953E-1,8.369698E-2,8.082235E-1,-2.1114137E0,-8.417859E-1,-1.3550655E0,-4.6107814E-2,-8.415016E-1,5.8654547E-1,1.6964014E0,1.1751459E0,1.048214E0,-1.06828146E-1,1.4541093E0,1.1043502E-1,-1.2503582E0,1.0681368E0,-1.758936E0,5.5955567E0,-4.8900034E-2,1.0141581E0,-5.584334E-1,2.269034E-1,-9.412227E-1,-1.3681309E0,-6.565634E-1,1.0750024E0,-1.3774915E0,2.512504E-1,7.091621E-1,-8.579747E-1,-2.032062E0,-0E0,-4.1004773E-2,-2.6095968E-3,4.6168186E-2,4.81193E-2,-5.837997E-4,1.0752274E-1,5.1334452E-2,6.3548736E-2,-4.46109E-2,3.3391923E-2,9.8093994E-2,-1.4574456E-2,-6.8539485E-2,-4.220748E-2,-5.308374E-3,-3.9443906E-2,-6.550008E-2,-3.981405E-2,7.007989E-2,1.1377005E-2,-4.1844323E-2,-2.2708368E-2,-3.61385E-2,1.5714345E-2,-1.4482557E-2,-4.3814998E-2,-3.683478E-3,-4.5605183E-2,-6.016911E-2,-1.8020935E-2,1.9365204E-2,1.8996712E-2,-3.300039E-2,-2.2593314E-2,-3.977823E-2,7.147609E-3,1.1649121E-1,1.2998432E-2,-3.8426656E-2,-4.5091543E-2,-2.3550786E-2,1.071111E-2,-5.6782514E-2,3.134723E-2,-1.8004479E-2,2.8429767E-2,-2.4064707E-2,-1.67056E-2,-4.1145794E-2,4.3709166E-2,-6.950172E-2,4.8365485E-2,1.197107E-1,-0E0,3.0447943E-2],"split_indices":[5,6,2,7,6,7,2,2,6,7,7,2,7,3,3,5,6,7,1,6,2,1,6,7,6,6,0,7,5,6,1,1,7,5,7,1,7,2,7,5,6,1,7,2,7,2,0,6,6,5,7,6,3,6,6,3,7,6,1,0,0,0,0,0,0,0,0,0,0,0,0,0,0,0,0,0,0,0,0,0,0,0,0,0,0,0,0,0,0,0,0,0,0,0,0,0,0,0,0,0,0,0,0,0,0,0,0,0,0,0,0,0,0,0,0],"split_type":[0,0,0,0,0,0,0,0,0,0,0,0,0,0,0,0,0,0,0,0,0,0,0,0,0,0,0,0,0,0,0,0,0,0,0,0,0,0,0,0,0,0,0,0,0,0,0,0,0,0,0,0,0,0,0,0,0,0,0,0,0,0,0,0,0,0,0,0,0,0,0,0,0,0,0,0,0,0,0,0,0,0,0,0,0,0,0,0,0,0,0,0,0,0,0,0,0,0,0,0,0,0,0,0,0,0,0,0,0,0,0,0,0,0,0],"sum_hessian":[1.0514E4,7.73E3,2.784E3,6.062E3,1.668E3,2.478E3,3.06E2,4.789E3,1.273E3,1.11E3,5.58E2,2.136E3,3.42E2,2.81E2,2.5E1,3.297E3,1.492E3,8.08E2,4.65E2,2.34E2,8.76E2,4.06E2,1.52E2,1.874E3,2.62E2,2.99E2,4.3E1,2.09E2,7.2E1,2.2E1,3E0,1.1E3,2.197E3,7.03E2,7.89E2,3.58E2,4.5E2,3.3E2,1.35E2,6E1,1.74E2,7.17E2,1.59E2,2.23E2,1.83E2,1.13E2,3.9E1,7E1,1.804E3,1.28E2,1.34E2,1.75E2,1.24E2,1.8E2,2.9E1,6.1E1,1.1E1,1.9E1,3E0,1E0,2E0,2.03E2,8.97E2,1.55E2,2.042E3,1.78E2,5.25E2,5.42E2,2.47E2,3.15E2,4.3E1,4.2E2,3E1,2.86E2,4.4E1,2.2E1,1.13E2,5E0,5.5E1,1.66E2,8E0,4.01E2,3.16E2,3.3E1,1.26E2,2.19E2,4E0,6.2E1,1.21E2,9.9E1,1.4E1,5.9E1,1.1E1,1.205E3,5.99E2,1.25E2,3E0,6.4E1,7E1,9.1E1,8.4E1,2E0,1.22E2,1.58E2,2.2E1,2E0,2.7E1,3.1E1,3E1,8E0,3E0,4E0,1.5E1,1E0,2E0],"tree_param":{"num_deleted":"0","num_feature":"8","num_nodes":"115","size_leaf_vector":"1"}},{"base_weights":[-6.9653206E-3,-1.4572735E-1,3.6711743E-1,-2.9073945E-1,-4.932243E-2,2.3718557E-1,6.98211E-1,-1.3431858E-1,-3.2771236E-1,1.1119648E-1,-1.5223126E-1,4.631493E-1,7.7985294E-2,5.371432E-1,8.6794776E-1,-2.7647674E-1,-4.1005697E-2,-2.536137E-1,-4.0706494E-1,-7.1214914E-2,2.3085213E-1,-2.1096398E-1,-8.566332E-2,2.2064531E-1,5.7775146E-1,1.3277633E-2,2.2689237E-1,8.2512695E-1,4.2835853E-1,9.1816086E-1,6.052596E-1,-2.1634415E-1,-5.362204E-1,5.7900626E-2,-2.3206092E-1,-3.4243545E-1,-1.5558143E-1,-5.267882E-1,-3.5892045E-1,-1.5261868E-1,9.456243E-2,6.9090146E-1,1.3350083E-1,-1.4476837E-1,-2.921399E-1,2.4969373E-2,-1.413084E-1,-1.3605313E-2,3.40969E-1,9.019284E-1,4.2824572E-1,5.240569E-2,-1.8858418E-1,2.0006543E-1,9.322648E-1,9.794399E-1,4.0078983E-1,5.408147E-1,3.094243E-1,9.2145765E-1,-2.664156E-3,-2.1681982E-1,6.7783695E-1,6.1658293E-2,-2.3335665E-2,2.3462707E-2,-6.2386185E-2,-1.7096607E-3,5.7928473E-2,-1.8536732E-2,-4.885865E-2,-4.1977815E-2,-2.5190262E-2,-2.3149997E-2,-1.6097038E-3,4.7704545E-3,-5.3060193E-2,-3.8154177E-2,-1.4673586E-2,-3.8364694E-2,-1.1995211E-2,-1.1229987E-2,3.3532437E-2,4.1148033E-2,1.0053899E-1,2.126042E-2,-1.5549964E-2,-7.2745844E-3,-2.517427E-2,-4.510146E-2,-2.369236E-2,-2.7425928E-2,5.382674E-3,-5.0477583E-2,-1.3047448E-2,-1.973361E-2,2.2627437E-2,2.0668618E-2,6.2276877E-2,1.1785933E-1,6.2038757E-2,3.2190066E-2,6.536237E-2,4.0723415E-4,1.8775122E-2,-4.2677864E-2,-1.4812807E-2,2.4219433E-2,-7.814224E-3,-1.7312951E-2,1.0471418E-1,4.6950903E-2,1.03450656E-1,-3.1601295E-2,5.180478E-2,6.15937E-2,2.0394042E-2,1.754427E-2,4.0221293E-2,7.9597645E-2,9.701485E-2,-5.1217582E-2,2.1592805E-2,-1.3428199E-2,7.38938E-2],"categories":[],"categories_nodes":[],"categories_segments":[],"categories_sizes":[],"default_left":[0,0,0,0,0,0,0,0,0,0,0,0,0,0,0,0,0,0,0,0,0,0,0,0,0,0,0,0,0,0,0,0,0,0,0,0,0,0,0,0,0,0,0,0,0,0,0,0,0,0,0,0,0,0,0,0,0,0,0,0,0,0,0,0,0,0,0,0,0,0,0,0,0,0,0,0,0,0,0,0,0,0,0,0,0,0,0,0,0,0,0,0,0,0,0,0,0,0,0,0,0,0,0,0,0,0,0,0,0,0,0,0,0,0,0,0,0,0,0,0,0,0,0,0,0],"id":12,"left_children":[1,3,5,7,9,11,13,15,17,19,21,23,25,27,29,31,33,35,37,39,41,43,45,47,49,51,53,55,57,59,61,63,65,67,69,71,73,75,77,79,81,83,85,87,89,91,93,95,97,99,101,103,105,107,109,111,113,115,117,119,-1,121,123,-1,-1,-1,-1,-1,-1,-1,-1,-1,-1,-1,-1,-1,-1,-1,-1,-1,-1,-1,-1,-1,-1,-1,-1,-1,-1,-1,-1,-1,-1,-1,-1,-1,-1,-1,-1,-1,-1,-1,-1,-1,-1,-1,-1,-1,-1,-1,-1,-1,-1,-1,-1,-1,-1,-1,-1,-1,-1,-1,-1,-1,-1],"loss_changes":[5.49846E2,1.079742E2,1.23035E2,1.7751373E1,7.671788E1,7.401516E1,2.1455963E1,7.809904E0,1.4495209E1,3.962577E1,1.1016754E1,2.3443237E1,1.1631839E1,1.258506E1,4.4493713E0,3.4635944E0,6.814721E0,1.1155594E1,6.650696E0,9.72307E0,4.8911217E1,7.9850006E0,8.196705E0,7.788498E0,2.74458E1,6.670464E0,6.6260624E0,6.868744E0,3.826973E0,1.1294861E0,4.1309166E0,2.8262348E0,3.0903015E0,9.333383E0,1.3153429E0,4.5674744E0,6.505206E0,8.2292175E-1,4.0238953E0,3.5487728E0,1.1863643E1,1.6228683E1,2.0750753E1,6.3440228E0,5.7282257E0,3.8352718E0,3.3555431E0,4.1846466E0,6.675375E0,1.3187454E1,9.207283E0,4.61812E0,1.1994815E0,4.184416E0,1.9194899E0,1.6664658E0,2.8735404E0,3.7149506E0,1.7488976E0,1.0368347E0,0E0,9.071059E-1,3.186592E0,0E0,0E0,0E0,0E0,0E0,0E0,0E0,0E0,0E0,0E0,0E0,0E0,0E0,0E0,0E0,0E0,0E0,0E0,0E0,0E0,0E0,0E0,0E0,0E0,0E0,0E0,0E0,0E0,0E0,0E0,0E0,0E0,0E0,0E0,0E0,0E0,0E0,0E0,0E0,0E0,0E0,0E0,0E0,0E0,0E0,0E0,0E0,0E0,0E0,0E0,0E0,0E0,0E0,0E0,0E0,0E0,0E0,0E0,0E0,0E0,0E0,0E0],"parents":[2147483647,0,0,1,1,2,2,3,3,4,4,5,5,6,6,7,7,8,8,9,9,10,10,11,11,12,12,13,13,14,14,15,15,16,16,17,17,18,18,19,19,20,20,21,21,22,22,23,23,24,24,25,25,26,26,27,27,28,28,29,29,30,30,31,31,32,32,33,33,34,34,35,35,36,36,37,37,38,38,39,39,40,40,41,41,42,42,43,43,44,44,45,45,46,46,47,47,48,48,49,49,50,50,51,51,52,52,53,53,54,54,55,55,56,56,57,57,58,58,59,59,61,61,62,62],"right_children":[2,4,6,8,10,12,14,16,18,20,22,24,26,28,30,32,34,36,38,40,42,44,46,48,50,52,54,56,58,60,62,64,66,68,70,72,74,76,78,80,82,84,86,88,90,92,94,96,98,100,102,104,106,108,110,112,114,116,118,120,-1,122,124,-1,-1,-1,-1,-1,-1,-1,-1,-1,-1,-1,-1,-1,-1,-1,-1,-1,-1,-1,-1,-1,-1,-1,-1,-1,-1,-1,-1,-1,-1,-1,-1,-1,-1,-1,-1,-1,-1,-1,-1,-1,-1,-1,-1,-1,-1,-1,-1,-1,-1,-1,-1,-1,-1,-1,-1,-1,-1,-1,-1,-1,-1],"split_conditions":[3.9083686E-1,-6.2458336E-1,1.4206985E0,-7.323306E-2,-4.319634E-2,-3.0839926E-2,2.052343E0,-1.0122979E0,-1.4656423E-1,-2.0697194E-1,-1.15560375E-1,-5.243789E-1,9.6208954E-1,-4.3720562E-2,1.2549828E-2,3.923854E-1,1.0094777E0,-7.596877E-1,5.5548555E-1,-5.973747E-2,-9.8233E-2,-5.677941E-1,-1.7930672E-2,-4.3926418E-1,-6.726924E-2,1.0656418E0,9.833042E-1,9.0183014E-1,-7.608311E-3,1.3885846E0,1.5757848E-2,-1.2158543E0,-1.3149433E-1,2.3757547E-1,1.7536505E0,-9.255964E-1,3.1445917E-1,-1.104159E0,1.8561734E0,-7.3741144E-1,-9.2113763E-1,-2.206944E-1,1.0375597E0,2.9369073E-2,5.5548555E-1,-7.4444735E-1,-9.062736E-1,8.5590523E-1,-7.5672776E-3,-6.988434E-1,-1.2282159E-1,5.882479E-1,-2.8393382E-1,9.579941E-1,-3.1473768E-1,-3.027864E-1,9.579941E-1,9.111908E-1,1.5926836E0,2.392952E0,-2.664156E-3,2.392952E0,-1.1314232E0,6.1658293E-2,-2.3335665E-2,2.3462707E-2,-6.2386185E-2,-1.7096607E-3,5.7928473E-2,-1.8536732E-2,-4.885865E-2,-4.1977815E-2,-2.5190262E-2,-2.3149997E-2,-1.6097038E-3,4.7704545E-3,-5.3060193E-2,-3.8154177E-2,-1.4673586E-2,-3.8364694E-2,-1.1995211E-2,-1.1229987E-2,3.3532437E-2,4.1148033E-2,1.0053899E-1,2.126042E-2,-1.5549964E-2,-7.2745844E-3,-2.517427E-2,-4.510146E-2,-2.369236E-2,-2.7425928E-2,5.382674E-3,-5.0477583E-2,-1.3047448E-2,-1.973361E-2,2.2627437E-2,2.0668618E-2,6.2276877E-2,1.1785933E-1,6.2038757E-2,3.2190066E-2,6.536237E-2,4.0723415E-4,1.8775122E-2,-4.2677864E-2,-1.4812807E-2,2.4219433E-2,-7.814224E-3,-1.7312951E-2,1.0471418E-1,4.6950903E-2,1.03450656E-1,-3.1601295E-2,5.180478E-2,6.15937E-2,2.0394042E-2,1.754427E-2,4.0221293E-2,7.9597645E-2,9.701485E-2,-5.1217582E-2,2.1592805E-2,-1.3428199E-2,7.38938E-2],"split_indices":[0,0,0,5,5,5,0,0,6,1,0,1,0,5,5,3,6,6,6,0,5,6,5,4,5,6,1,6,5,6,5,4,5,3,6,0,4,4,1,4,1,0,6,5,6,4,4,0,3,6,3,6,3,6,3,3,6,6,0,0,0,0,4,0,0,0,0,0,0,0,0,0,0,0,0,0,0,0,0,0,0,0,0,0,0,0,0,0,0,0,0,0,0,0,0,0,0,0,0,0,0,0,0,0,0,0,0,0,0,0,0,0,0,0,0,0,0,0,0,0,0,0,0,0,0],"split_type":[0,0,0,0,0,0,0,0,0,0,0,0,0,0,0,0,0,0,0,0,0,0,0,0,0,0,0,0,0,0,0,0,0,0,0,0,0,0,0,0,0,0,0,0,0,0,0,0,0,0,0,0,0,0,0,0,0,0,0,0,0,0,0,0,0,0,0,0,0,0,0,0,0,0,0,0,0,0,0,0,0,0,0,0,0,0,0,0,0,0,0,0,0,0,0,0,0,0,0,0,0,0,0,0,0,0,0,0,0,0,0,0,0,0,0,0,0,0,0,0,0,0,0,0,0],"sum_hessian":[1.0591E4,7.726E3,2.865E3,3.084E3,4.642E3,2.059E3,8.06E2,5.91E2,2.493E3,1.813E3,2.829E3,8.5E2,1.209E3,4.16E2,3.9E2,2.33E2,3.58E2,1.292E3,1.201E3,7.18E2,1.095E3,1.501E3,1.328E3,2.74E2,5.76E2,8.44E2,3.65E2,1.12E2,3.04E2,3.25E2,6.5E1,1.91E2,4.2E1,2.36E2,1.22E2,6.76E2,6.16E2,3.41E2,8.6E2,4.82E2,2.36E2,1.9E2,9.05E2,8.29E2,6.72E2,4.44E2,8.84E2,9.3E1,1.81E2,1.8E2,3.96E2,7.08E2,1.36E2,3.53E2,1.2E1,8.1E1,3.1E1,1.54E2,1.5E2,3.24E2,1E0,5E0,6E1,3E0,1.88E2,4E0,3.8E1,2.07E2,2.9E1,1.05E2,1.7E1,3.62E2,3.14E2,3.98E2,2.18E2,2E0,3.39E2,7.76E2,8.4E1,5.8E1,4.24E2,1.27E2,1.09E2,1.02E2,8.8E1,7.11E2,1.94E2,4.97E2,3.32E2,1.71E2,5.01E2,3.8E1,4.06E2,2.4E1,8.6E2,5.3E1,4E1,1.24E2,5.7E1,8.9E1,9.1E1,2.71E2,1.25E2,5.23E2,1.85E2,1.8E1,1.18E2,3.07E2,4.6E1,1E0,1.1E1,9E0,7.2E1,4E0,2.7E1,1.25E2,2.9E1,6.3E1,8.7E1,9.6E1,2.28E2,3E0,2E0,4E0,5.6E1],"tree_param":{"num_deleted":"0","num_feature":"8","num_nodes":"125","size_leaf_vector":"1"}},{"base_weights":[9.101613E-4,9.604711E-2,-1.2767068E-1,1.8249768E-1,-2.019487E-1,-1.7446463E-1,1.902198E-1,2.2602265E-1,-2.442756E-1,-1.2463156E-1,-3.4936035E-1,-1.442995E-1,-3.5917944E-1,3.0238023E-1,-1.1448587E-1,1.2627168E-1,4.0738234E-1,-2.0406647E-1,-6.1519325E-1,2.2569212E-1,-2.2072515E-1,-4.073115E-1,-1.9223896E-1,5.8420934E-2,-1.7291196E-1,-2.6379E-1,-4.6264648E-1,1.9252881E-1,6.1229813E-1,-3.4913856E-1,9.48971E-2,3.4061977E-1,3.441786E-2,5.51067E-1,2.4744976E-1,-1.4787248E-1,-3.9237192E-1,-4.3024667E-2,-6.5553896E-2,7.4047774E-1,1.2639916E-1,-3.9504817E-1,-1.911908E-1,-3.4754288E-1,-4.4320473E-1,-6.9991976E-2,-2.9940182E-1,7.036244E-1,1.8817632E-2,-3.389069E-2,-2.1599297E-1,-2.2145458E-1,-6.0576046E-1,-3.6233532E-1,-5.1602095E-1,3.6201492E-1,1.0015809E-1,6.3202E-1,-2.684543E-2,-1.8213199E-1,-4.4466144E-1,4.4325218E-1,-8.868825E-2,4.4503693E-2,1.0477579E-2,4.5078482E-2,2.919344E-4,8.1623614E-2,3.576448E-2,4.9599513E-2,-5.604591E-2,-2.3533283E-2,7.7812554E-4,1.4326237E-1,-4.30098E-2,-4.1810352E-2,4.911059E-2,-1.1485683E-2,9.132289E-2,1.6521329E-2,-2.9412463E-2,-7.828029E-2,-3.7829753E-2,9.983317E-3,-1.9991493E-2,-2.2457598E-2,-4.2156365E-2,-4.4959992E-2,-0E0,-1.8905215E-3,-2.729447E-2,-3.7368536E-2,6.6694507E-4,-7.2485544E-3,8.227109E-2,7.853831E-3,-1.2463587E-2,1.12214815E-2,-2.3976559E-2,-1.1934434E-2,-4.086148E-2,-3.5087623E-2,-5.802208E-3,-6.2330153E-2,-0E0,1.898524E-2,-3.77327E-2,3.1621546E-2,-5.2349675E-2,4.4061024E-2,7.316643E-3,3.9337214E-2,4.103347E-3,6.771369E-2,3.00486E-2,3.872182E-3,-3.7024584E-2,-2.6751533E-2,-6.998046E-2,6.0314275E-2,-2.5351891E-2,3.8826594E-3,-2.4725912E-2],"categories":[],"categories_nodes":[],"categories_segments":[],"categories_sizes":[],"default_left":[0,0,0,0,0,0,0,0,0,0,0,0,0,0,0,0,0,0,0,0,0,0,0,0,0,0,0,0,0,0,0,0,0,0,0,0,0,0,0,0,0,0,0,0,0,0,0,0,0,0,0,0,0,0,0,0,0,0,0,0,0,0,0,0,0,0,0,0,0,0,0,0,0,0,0,0,0,0,0,0,0,0,0,0,0,0,0,0,0,0,0,0,0,0,0,0,0,0,0,0,0,0,0,0,0,0,0,0,0,0,0,0,0,0,0,0,0,0,0,0,0,0,0],"id":13,"left_children":[1,3,5,7,9,11,13,15,17,19,21,23,25,27,29,31,33,35,37,39,41,43,45,47,49,51,53,55,57,59,61,63,65,67,69,71,73,75,-1,77,79,81,83,85,87,89,91,93,95,97,99,101,103,105,107,109,111,113,-1,115,117,119,121,-1,-1,-1,-1,-1,-1,-1,-1,-1,-1,-1,-1,-1,-1,-1,-1,-1,-1,-1,-1,-1,-1,-1,-1,-1,-1,-1,-1,-1,-1,-1,-1,-1,-1,-1,-1,-1,-1,-1,-1,-1,-1,-1,-1,-1,-1,-1,-1,-1,-1,-1,-1,-1,-1,-1,-1,-1,-1,-1,-1],"loss_changes":[1.295421E2,1.5684763E2,6.701532E1,8.771019E1,1.5512157E1,2.177327E1,1.9807089E1,7.737811E1,6.31007E0,3.034679E1,4.141266E0,1.9609253E1,5.2336273E0,1.4202633E1,7.7231913E0,5.4390003E1,3.4690186E1,4.0782814E0,8.714886E-1,9.735946E0,3.505848E0,5.0057983E-1,1.6320481E0,1.0595329E1,1.7695656E1,3.9671173E0,1.1279564E0,4.8333693E0,2.1167336E0,1.0368519E0,5.382857E0,2.0313469E1,2.5356956E1,4.0571075E1,1.4504979E2,4.2039404E0,6.712405E0,9.993972E-1,0E0,4.765291E0,2.7125535E0,2.4376488E-1,1.5710964E0,1.0603943E0,5.868988E-1,6.0848314E-1,1.5852461E0,2.3528385E0,3.3891995E0,2.115544E1,4.1953415E1,5.417042E0,2.7982616E-1,8.7681675E-1,1.2314949E0,2.413619E0,3.4943326E0,1.314209E0,0E0,1.2523131E0,1.7951488E0,3.4186769E0,1.1425512E0,0E0,0E0,0E0,0E0,0E0,0E0,0E0,0E0,0E0,0E0,0E0,0E0,0E0,0E0,0E0,0E0,0E0,0E0,0E0,0E0,0E0,0E0,0E0,0E0,0E0,0E0,0E0,0E0,0E0,0E0,0E0,0E0,0E0,0E0,0E0,0E0,0E0,0E0,0E0,0E0,0E0,0E0,0E0,0E0,0E0,0E0,0E0,0E0,0E0,0E0,0E0,0E0,0E0,0E0,0E0,0E0,0E0,0E0,0E0,0E0],"parents":[2147483647,0,0,1,1,2,2,3,3,4,4,5,5,6,6,7,7,8,8,9,9,10,10,11,11,12,12,13,13,14,14,15,15,16,16,17,17,18,18,19,19,20,20,21,21,22,22,23,23,24,24,25,25,26,26,27,27,28,28,29,29,30,30,31,31,32,32,33,33,34,34,35,35,36,36,37,37,39,39,40,40,41,41,42,42,43,43,44,44,45,45,46,46,47,47,48,48,49,49,50,50,51,51,52,52,53,53,54,54,55,55,56,56,57,57,59,59,60,60,61,61,62,62],"right_children":[2,4,6,8,10,12,14,16,18,20,22,24,26,28,30,32,34,36,38,40,42,44,46,48,50,52,54,56,58,60,62,64,66,68,70,72,74,76,-1,78,80,82,84,86,88,90,92,94,96,98,100,102,104,106,108,110,112,114,-1,116,118,120,122,-1,-1,-1,-1,-1,-1,-1,-1,-1,-1,-1,-1,-1,-1,-1,-1,-1,-1,-1,-1,-1,-1,-1,-1,-1,-1,-1,-1,-1,-1,-1,-1,-1,-1,-1,-1,-1,-1,-1,-1,-1,-1,-1,-1,-1,-1,-1,-1,-1,-1,-1,-1,-1,-1,-1,-1,-1,-1,-1,-1],"split_conditions":[-1.3560377E-2,1.070322E0,5.3959197E-1,1.2177399E0,1.505593E0,1.0083256E0,2.4562787E-2,5.7275806E-2,1.6964014E0,-1.4099121E0,-8.2155734E-1,-8.298927E-1,-1.045188E0,1.0280505E0,8.787454E-1,-8.436457E-2,-4.6950713E-1,-8.8605666E-1,